-0.0029 -0.2236 0.1106 -0.1258 0.0099 -0.2400 0.7084 0.0397 0.4762 -0.3112 -0.6045 0.3293 -0.4568 0.6856 -0.0774 -0.3685 
-0.3244 0.4097 -0.1296 0.2191 0.1242 0.3157 -0.5023 0.0764 -0.2866 0.1443 0.2651 -0.2365 0.0712 0.0093 -0.0074 0.0736 
-1.4935 1.7209 -0.8011 1.2836 0.3036 1.8556 -2.8609 -0.8432 -2.3020 1.4378 2.6419 -1.7263 1.2673 -1.6185 0.2580 1.4786 
-0.4806 1.2407 -0.1509 0.7626 1.0287 0.2875 -0.7474 1.8738 -0.6419 0.7010 0.4554 -0.6597 0.0112 -0.0244 -0.8858 -0.4166 
0.4157 -1.0272 0.1553 -0.6332 -0.7910 -0.3431 0.6477 -1.6476 0.6516 -0.6318 -0.6280 0.7351 -0.0897 0.1985 0.6846 0.2020 
0.0149 0.0079 -0.1346 0.1578 -0.1770 0.1795 -0.3995 -0.8951 -0.3012 0.1769 0.5162 -0.2075 0.3124 -0.5885 0.2604 0.4591 
-0.4869 0.3789 -0.2713 0.2726 -0.1156 0.6349 -1.1927 -0.6000 -0.7435 0.4101 1.0113 -0.5143 0.5780 -0.7374 0.3389 0.6677 
-1.4838 2.5523 -0.5656 1.5536 1.3844 1.3696 -2.3902 1.8713 -2.0134 1.6260 1.9988 -1.7941 0.6723 -0.8175 -0.8531 0.2510 
-1.6840 2.5480 -0.9164 1.7509 0.7830 1.9801 -3.5567 -0.4528 -2.7828 1.9645 3.1168 -2.2554 1.3218 -1.8552 -0.0356 1.4887 
0.1924 -0.4809 0.0487 -0.3188 -0.4496 -0.0840 0.0677 -0.7871 0.2569 -0.3222 -0.1480 0.3105 -0.0071 -0.0196 0.4253 0.2003 
-0.6830 0.5508 -0.3585 0.4449 -0.1300 0.8098 -1.0337 -1.1351 -0.9642 0.4766 1.1777 -0.7127 0.5962 -0.7821 0.3655 0.9247 
-1.1189 1.9716 -0.5279 1.2174 0.8905 1.1967 -2.1192 0.5391 -1.6801 1.2912 1.7842 -1.4162 0.6616 -0.8136 -0.4144 0.6234 
0.3423 -1.1966 0.0361 -0.7053 -1.0887 -0.2137 0.7116 -1.8536 0.6010 -0.6715 -0.4504 0.6469 -0.0080 0.0244 0.8841 0.5172 
-0.2889 -0.4143 -0.3394 -0.1494 -0.9988 0.5592 -0.9854 -1.8844 -0.5360 -0.0156 0.8654 -0.1389 0.7629 -0.8125 1.0202 1.1370 
0.6726 -0.2682 0.3669 -0.3700 0.3265 -0.8296 1.0431 1.3482 0.8800 -0.3601 -1.1263 0.6042 -0.5993 0.7469 -0.5124 -1.0011 
-0.5450 0.6453 -0.2664 0.4523 0.2495 0.5567 -0.7907 0.1150 -0.6861 0.4870 0.7920 -0.6029 0.2586 -0.4254 -0.1487 0.2737 
-0.1861 -0.0908 0.0779 -0.1263 0.0883 -0.0702 0.5198 0.2982 0.3602 -0.2917 -0.5479 0.2792 -0.4110 0.7228 -0.1560 -0.4419 
-0.1176 0.0713 -0.0184 -0.0860 -0.0232 0.0557 -0.2614 -0.1079 0.0292 -0.0884 -0.1060 0.0977 -0.0095 0.2115 0.0557 -0.0171 
-1.3122 1.7000 -0.7028 1.2487 0.4323 1.4902 -2.3414 -0.2078 -2.0193 1.4187 2.2183 -1.5972 1.0349 -1.3583 -0.0470 1.0808 
-0.2867 1.2193 -0.1063 0.7593 0.9466 0.2269 -0.8779 1.4919 -0.6705 0.7322 0.5741 -0.7299 0.1386 -0.2974 -0.7802 -0.2231 
0.5437 -1.2385 0.2262 -0.8361 -0.8633 -0.4908 0.9908 -1.2132 0.8851 -0.8531 -0.8411 0.8634 -0.1823 0.4037 0.6107 0.0063 
0.0558 0.1421 -0.1266 0.2986 0.0679 0.1385 -0.3336 0.0211 -0.3943 0.3391 0.6076 -0.3431 0.3079 -0.7107 -0.0644 0.3423 
-0.6388 0.6950 -0.3530 0.4358 -0.1382 0.8177 -1.5862 -0.9731 -0.9826 0.5486 1.2820 -0.6573 0.6526 -0.8435 0.4313 0.8286 
-1.2064 2.3415 -0.4938 1.3889 1.2660 1.1746 -2.1293 1.5189 -1.7139 1.5291 1.7440 -1.5743 0.4879 -0.6588 -0.7861 0.1395 
-1.6467 2.6333 -0.8929 1.7597 1.0009 1.9462 -3.6503 0.3867 -2.7803 2.0257 3.1546 -2.2839 1.3697 -1.8224 -0.2710 1.2647 
-0.0727 -0.2524 -0.0405 -0.1828 -0.4198 0.0967 -0.3212 -0.7984 0.0264 -0.1219 0.0199 0.0913 0.1075 -0.0198 0.4358 0.2687 
-0.6087 0.4869 -0.2821 0.3982 0.0094 0.7352 -0.9671 -0.7549 -0.8863 0.4099 1.0397 -0.6465 0.5756 -0.7189 0.2475 0.7275 
-0.9867 1.7830 -0.4460 1.0551 0.7738 1.0047 -2.0301 0.6925 -1.4554 1.1487 1.4873 -1.2178 0.5729 -0.6742 -0.4295 0.2968 
0.0340 -0.9418 0.0338 -0.5391 -0.8692 -0.0311 0.6781 -1.4744 0.4598 -0.6160 -0.3954 0.5007 -0.0428 0.1707 0.7356 0.3147 
-0.2985 -0.0182 -0.3364 0.1038 -0.5408 0.5921 -1.0791 -1.4586 -0.6541 0.2281 0.9156 -0.3241 0.6130 -0.8593 0.6754 0.8803 
1.1204 -0.9372 0.5290 -0.6881 -0.0058 -1.2192 1.7334 0.9188 1.3288 -0.6660 -1.5292 1.0063 -0.6945 0.8109 -0.3180 -0.9929 
-0.5245 1.0334 -0.2706 0.6508 0.5089 0.5486 -1.0530 0.5599 -0.9199 0.7699 0.9729 -0.7949 0.3127 -0.4968 -0.2884 0.2074 
-0.1731 -0.0064 0.0603 1.0675 -0.0863 0.9469 0.1053 -0.0374 -0.3550 0.1054 0.0431 0.0648 -0.1361 0.0344 0.1901 -0.2897 
0.3421 0.0838 -0.1901 0.7211 0.1313 0.3421 0.0992 0.2368 -0.0156 -0.0984 0.1942 0.0099 -0.0331 -0.1079 0.0204 0.0768 
-0.3256 -0.1151 0.1360 0.7223 -0.1443 1.2574 0.0537 -0.1602 -0.2965 0.0741 -0.1017 0.2394 -0.1387 0.0226 0.1487 -0.0015 
0.0535 0.0950 -0.0640 -2.2072 0.1413 -2.7998 0.0161 0.2403 0.3084 0.0274 -0.0150 -0.4323 -0.0370 0.0762 0.1132 -0.2940 
0.1933 -0.1471 -0.0578 1.3395 -0.1140 1.7319 -0.1300 -0.1665 -0.0542 -0.1159 -0.0141 0.4096 0.1987 -0.1246 -0.2246 0.4670 
-0.2741 -0.0644 0.1861 0.3241 -0.1521 0.9517 -0.0925 -0.1484 0.1535 0.0479 -0.1091 -0.0282 0.0008 0.1152 -0.1084 0.0033 
0.3634 0.1066 -0.1906 1.0163 0.0673 0.9146 0.0231 0.2500 0.1237 -0.1377 0.1277 0.1324 0.0575 -0.1122 -0.1091 0.1398 
-0.1000 -0.0132 0.0169 -2.4226 -0.0162 -3.2177 0.0789 0.1055 -0.2132 0.0774 0.0071 -0.0863 -0.0722 -0.0148 0.1455 -0.2693 
0.1065 0.1563 -0.1043 0.3055 0.0736 0.2882 0.1104 0.1525 0.0095 -0.0710 0.0280 0.0496 -0.0650 -0.0523 0.0892 -0.2010 
0.3707 0.0374 -0.1544 2.5006 0.0829 2.5686 0.0504 0.0997 -0.0802 -0.1314 0.1169 0.3780 0.0345 -0.1390 -0.1024 0.2891 
-0.1965 0.0889 0.0325 -1.2484 -0.0184 -1.1826 0.0463 0.0895 0.0514 0.0824 -0.0510 -0.2187 -0.0872 0.0252 0.0847 -0.3824 
0.1950 0.1640 -0.1879 -1.1084 0.0983 -1.9519 0.1210 0.2646 -0.0785 -0.0545 0.1787 -0.0507 -0.0039 -0.0971 0.0853 -0.2063 
-0.1955 -0.1828 0.1203 0.9085 -0.1857 1.3378 -0.0206 -0.2579 -0.3757 -0.0490 -0.1163 0.4265 -0.0006 -0.0271 0.0066 0.3205 
0.2107 -0.0425 -0.0996 2.7597 -0.0240 3.3713 -0.0855 -0.0430 -0.0419 -0.2110 0.0852 0.5311 0.1420 -0.0748 -0.2161 0.5158 
0.0673 -0.1348 0.0816 -1.8267 0.0067 -2.0036 -0.1543 -0.1805 0.1071 -0.0170 -0.0827 -0.0243 0.1773 -0.0119 -0.1837 0.4693 
-0.0378 0.0856 0.0367 -0.3860 0.0656 -0.3671 0.1034 0.1340 0.0371 0.0792 0.0333 -0.1433 -0.0818 0.0720 0.0910 -0.2647 
