0.0090 -0.0372 0.0814 -0.0108 -0.0020 0.0246 -0.0242 0.0404 -0.0127 -0.0092 0.0067 -0.0172 -0.0087 -0.0110 0.0566 0.0671 0.0700 0.0038 -0.1748 0.0630 -0.0067 -0.0203 0.0049 -0.0090 0.0428 -0.0000 -0.1058 0.0980 -0.0095 -0.0173 0.0153 0.0031 
-0.0183 0.0308 -0.1326 0.0176 -0.0104 -0.0218 0.0170 0.0149 -0.0154 -0.0068 0.0401 0.0298 -0.0147 0.0101 0.0038 -0.0221 -0.0219 0.0257 0.0367 0.0176 0.0309 -0.0006 -0.0326 0.0379 0.0186 -0.1570 0.0069 -0.0145 -0.0338 0.0000 -0.0070 0.0070 
-0.0250 -0.0368 -0.0065 0.0266 -0.0130 -0.0119 -0.0275 0.0025 -0.0203 -0.0286 -0.0216 0.0168 -0.0458 0.0451 0.0183 -0.0006 0.0083 0.0361 -0.0095 -0.0019 -0.0158 -0.0010 -0.0253 -0.0336 0.0011 0.0368 -0.0098 0.0053 -0.0127 -0.0139 -0.0079 0.0474 
-0.0013 0.0121 -0.0017 3.4317 0.1396 0.0199 -0.0742 -0.0626 0.0036 -0.4170 0.0082 -0.0381 -0.0159 0.6160 0.0194 0.0882 0.0012 0.0497 -0.0002 0.0371 -0.0180 0.0000 -0.0341 0.0639 0.0000 -0.0545 0.0000 0.2042 0.0749 5.1948 0.1439 -0.0181 
0.0031 0.0367 0.0616 -0.0091 0.0025 0.0525 -0.0153 -0.0015 -0.0117 -0.0168 0.0077 0.0204 0.0222 -0.0142 0.0088 -0.0197 -0.0824 0.0460 -0.0669 -0.0166 0.0132 -0.0110 -0.0274 -0.0357 0.0156 0.0045 0.0557 -0.0168 0.0175 0.0009 -0.0007 -0.0113 
-0.0045 -0.0187 -0.0000 4.4062 -0.0327 0.0051 -0.0525 0.0167 0.0236 5.0838 -0.0411 -0.0003 -0.0428 1.5893 0.0155 -0.0370 0.0017 -0.0472 0.0000 0.0004 -0.0110 0.0001 0.0125 -0.0397 0.0289 0.0013 0.0001 -0.0084 -0.0499 4.2276 0.1905 0.0100 
-0.0344 -0.0416 -0.0091 -0.0049 0.0362 0.0306 -0.0347 0.0109 0.0254 -0.0079 -0.0282 0.0517 -0.0285 0.0199 -0.0180 -0.0408 0.0701 0.0163 0.0190 -0.0084 -0.0097 -0.0126 -0.0024 0.0634 0.0205 0.0104 -0.0255 -0.0318 0.0336 0.0208 0.0037 -0.0336 
0.0504 -0.0455 -0.0114 0.0058 0.0601 0.0036 -0.0021 0.0200 0.0211 0.0005 0.0130 -0.0692 -0.0024 0.0026 -0.0062 -0.0052 -0.0214 0.0256 0.1010 0.0330 0.0473 -0.0007 0.0338 0.0430 -0.0132 -0.0001 0.0590 -0.0218 -0.0419 -0.0001 -0.0047 -0.0135 
0.0031 0.0142 0.0833 -0.0011 -0.0163 -0.0110 -0.0245 -0.0581 0.0770 0.0136 -0.0744 -0.0183 0.0164 -0.0111 0.0443 -0.0369 0.0764 0.0125 0.0691 0.0736 0.0480 0.0181 0.0342 -0.0124 0.0864 0.0139 -0.0301 0.0249 -0.0147 -0.0001 -0.0089 0.0212 
-0.0513 0.0398 -0.0449 -0.0217 -0.0152 -0.0047 -0.0214 -0.0370 -0.0252 -0.0046 0.0003 0.0255 0.0146 -0.0106 0.0050 0.0088 -0.0592 0.0239 0.0055 -0.0145 -0.0048 -0.0025 -0.0260 -0.0220 -0.0142 0.0175 -0.0093 -0.0041 -0.0491 -0.0125 -0.0095 -0.0929 
-0.0257 -0.0271 0.0033 -0.0101 0.0078 0.0331 0.0035 0.0245 -0.0187 -0.0353 0.0014 0.0490 -0.0127 -0.0142 0.0001 -0.0122 -0.0416 -0.0425 -0.0080 0.0035 -0.0047 0.0069 0.0368 0.0068 -0.0216 -0.0437 0.0244 -0.0243 -0.0121 0.0357 0.0023 0.0066 
-0.0231 -0.0423 0.0169 0.1340 0.1048 0.0069 -0.0080 -0.0360 0.0034 0.1880 -0.0404 0.0376 -0.0149 0.0159 -0.0343 -0.0148 0.0057 0.0276 0.0201 -0.0750 -0.0122 0.0268 0.0114 0.0128 0.0419 -0.0009 -0.0040 -0.0591 -0.0105 -0.0375 0.2605 0.0038 
0.0007 0.0426 -0.0204 -0.0082 -0.0071 0.0407 0.0062 -0.0419 0.0145 0.0111 0.0478 0.0416 -0.0287 -0.0163 -0.0144 0.0331 -0.0485 -0.0164 0.0522 -0.0067 -0.0375 -0.0038 -0.0419 -0.0381 0.0527 0.0167 -0.0025 -0.0240 -0.0040 -0.0235 0.0700 0.0249 
-0.0275 -0.0261 -0.0180 0.0128 0.0288 0.0245 0.0247 0.0152 0.0060 0.0135 0.0140 0.0191 -0.0499 -0.0290 -0.0013 -0.0294 -0.0193 -0.0180 0.0190 -0.0006 0.0277 0.0129 0.0060 0.0197 0.0160 0.0269 -0.0542 -0.0144 -0.0115 -0.0209 -0.0154 0.0135 
-0.0290 -0.0041 -0.1233 -0.0092 -0.0108 -0.0176 0.0294 0.0361 0.0182 0.0007 0.0057 0.0415 0.0095 -0.0042 -0.0022 0.0445 -0.0290 0.0149 -0.0096 -0.0108 -0.0194 -0.0015 0.0442 0.0752 -0.0117 -0.0033 -0.0545 -0.0021 -0.0354 -0.0036 0.0055 -0.0067 
0.0092 -0.0243 0.0050 -0.1301 -0.0266 0.0329 0.0882 -0.0449 -0.0343 0.0606 0.0892 0.0234 0.0209 0.1826 0.1149 -0.0442 0.0039 -0.0194 -0.0059 0.1465 -0.0216 -0.0474 0.0346 -0.0115 -0.0502 0.0697 0.0030 -0.0024 -0.0205 0.0318 0.2726 0.0280 
