-0.0633 0.0306 0.0033 -0.0149 0.0019 -0.0163 -0.0090 -0.0282 -0.0282 -0.0281 -0.0062 -0.0132 0.0013 -0.0095 -0.0048 -0.0061 
-0.0207 0.0277 0.0424 -0.0392 0.0274 -0.0135 0.0021 0.0060 0.0091 -0.0212 0.0031 -0.0392 0.0424 0.0064 0.0275 -0.0383 
0.0116 -0.0042 -0.0049 -0.0125 0.0072 0.0597 -0.0106 0.0093 -0.0144 0.0094 -0.0115 0.0007 0.0137 0.0013 0.0120 -0.0080 
-0.0283 0.0215 -0.0120 -0.0173 -0.0109 0.0532 0.0117 0.0199 -0.0211 -0.0442 0.0239 -0.0222 0.0187 0.0144 -0.0187 -0.0067 
-0.0258 -0.0016 -0.0030 0.0206 -0.0516 0.0039 0.0257 -0.0155 -0.0630 0.0227 0.0291 0.0668 -0.0073 0.0060 -0.0471 0.0298 
0.0031 -0.0045 0.0335 0.0292 -0.0239 0.0098 0.0192 -0.0148 0.0322 0.0172 -0.0083 0.0168 -0.0076 0.0042 -0.0410 0.0039 
-0.0386 -0.0010 -0.0053 -0.0254 -0.0588 -0.0289 -0.0194 -0.0258 0.0577 -0.0388 -0.0500 -0.0248 0.0106 -0.0143 -0.0643 -0.0415 
0.0251 0.0170 0.0215 0.0240 -0.0044 0.0193 -0.0152 -0.0084 -0.0146 0.0247 0.0510 0.0269 -0.0102 -0.0216 -0.0183 -0.0197 
0.0012 0.0109 -0.0012 0.0038 0.0893 0.0123 0.0384 0.0130 0.0801 0.0151 -0.0926 -0.0055 -0.0165 -0.0166 0.0359 0.0865 
0.0476 0.0129 0.0335 -0.0055 -0.0162 -0.0293 0.0247 0.0184 0.0455 0.0238 -0.0021 -0.0272 0.0260 0.0276 0.0032 -0.0193 
0.0054 -0.0416 0.0316 -0.0068 0.0258 0.0108 -0.0224 0.0110 -0.0074 -0.0181 -0.0335 0.0031 -0.0030 0.0217 -0.0074 -0.0043 
-0.0175 -0.0141 0.0245 0.0149 -0.0011 0.0230 -0.0036 -0.0048 -0.0073 0.0695 0.0094 -0.0202 0.0148 -0.0207 -0.0018 -0.0135 
-0.0195 -0.0075 0.0088 0.0273 0.0741 0.0245 0.0182 -0.0068 -0.0399 0.0151 0.0662 0.0351 -0.0004 -0.0098 -0.0542 0.0623 
0.0001 -0.0025 0.0002 -0.0024 2.2947 -0.0001 -0.0368 -0.0011 7.3391 -0.0003 -4.2659 1.3353 -0.0005 0.0006 6.6486 0.2108 
-0.0503 0.0136 0.0015 -0.0425 0.0063 -0.0409 -0.0114 0.0292 0.0330 -0.0273 0.0056 -0.0111 0.0063 0.0211 -0.0208 -0.0294 
0.0356 0.0334 -0.0233 0.0008 0.0387 0.0260 0.0077 0.0376 0.0322 0.0384 0.0125 -0.0250 0.0036 0.0103 0.0199 0.0089 
-0.0207 -0.0214 0.0095 0.0301 -0.0117 0.0435 0.0195 -0.0190 -0.0284 -0.0233 0.0162 0.0342 0.0417 0.0346 0.0525 0.0322 
0.0381 -0.0226 -0.0148 0.0182 0.0327 0.0510 0.0137 0.0226 0.0172 -0.0228 -0.0380 -0.0180 0.0346 0.0187 0.0280 -0.0214 
0.0528 -0.0015 -0.0349 -0.0095 -0.0035 0.0262 0.0144 0.0165 0.0466 -0.0211 0.0021 0.0442 -0.0239 -0.0003 0.0256 -0.0463 
0.0012 -0.0052 0.0019 0.0020 0.8857 -0.0003 -0.0730 0.0016 0.5123 -0.0004 0.9168 0.2476 -0.0030 0.0031 0.8293 -0.5433 
-0.0103 0.0239 0.0026 0.0158 0.0424 -0.0143 -0.0040 0.0100 0.0039 0.0280 0.0371 0.0410 -0.0003 -0.0020 0.0459 -0.0584 
0.0019 -0.0013 0.0152 0.0003 0.0784 -0.0124 -0.0466 0.0069 0.0383 -0.0199 -0.0327 0.0652 0.0241 -0.0130 -0.0907 -0.0416 
-0.0615 0.0045 -0.0208 0.0193 0.0139 0.0048 0.0059 -0.0079 0.0009 -0.0383 -0.0208 -0.0221 0.0144 0.0146 -0.0131 -0.0084 
-0.0235 -0.0457 0.0309 -0.0331 -0.0216 -0.0482 0.0307 0.0465 -0.0337 -0.0357 0.0351 -0.0360 -0.0116 0.0380 -0.0078 0.0090 
-0.0009 -0.0017 0.0007 -0.0130 0.0941 -0.0185 0.0192 0.0007 -0.0078 0.0101 0.0052 -0.0460 -0.0019 0.0132 0.0094 0.0423 
13.6745 -0.0001 0.0001 -0.0002 -0.0000 8.3644 -0.0001 0.0000 0.0000 10.9305 0.0000 -0.0000 0.0002 -0.0002 0.0000 -0.0000 
0.0278 -0.0051 0.0012 0.0020 -0.0009 -0.1114 -0.0107 0.0113 0.0092 0.0385 -0.0094 -0.0050 -0.0048 0.0066 -0.0119 -0.0095 
-0.0882 0.0207 -0.0153 -0.0020 0.0057 -0.0612 -0.0230 -0.0017 -0.0197 0.0395 0.0087 0.0162 0.0158 -0.0005 -0.0184 -0.0053 
0.0314 0.0140 0.0451 -0.0219 0.0305 -0.0450 -0.0296 0.0143 0.0168 -0.0138 0.0452 -0.0478 -0.0420 0.0480 -0.0359 -0.0351 
0.1507 -0.0057 0.0030 0.0012 0.0004 0.0384 -0.0129 0.0028 -0.0051 0.0641 -0.0014 -0.0101 -0.0109 0.0015 -0.0003 0.0117 
-0.0165 -0.0027 -0.0111 0.0286 -0.0002 -0.0015 0.0221 -0.0160 0.0666 0.0051 -0.0621 0.0722 0.0041 -0.0087 -0.0892 -0.0006 
0.0015 0.0030 -0.0063 -0.0077 -0.2434 -0.0035 0.1682 0.0009 0.2516 -0.0033 0.1799 0.3185 0.0038 -0.0054 0.4361 0.4069 
