-0.3861 -1.7633 0.0014 -0.0535 -0.0035 -0.0306 -0.0476 -0.0002 -0.4028 0.0276 1.8781 0.0000 -1.3010 0.0261 -8.2665 0.0005 0.0044 0.0885 0.0001 0.0119 0.0001 0.9697 -5.5526 -0.0160 0.0000 -0.0004 -0.0919 0.2481 0.0008 0.0024 -3.6870 0.0047 
0.3319 -1.4752 -1.5481 0.0119 0.0192 0.1157 -7.1857 -0.2415 2.6916 -0.0078 0.2369 0.0086 0.3704 0.0003 -1.7784 -0.0000 0.0060 0.0035 -0.0000 0.0005 -4.2473 0.3336 0.0000 0.1126 0.0000 -0.0001 -0.0105 -0.3145 -0.0021 -0.0000 -1.5116 -0.0018 
1.2021 -3.4038 -5.4565 -0.0059 -0.0111 0.0387 -2.7839 -0.1744 -0.0871 0.3233 -0.0061 0.0163 0.0585 -0.0155 -1.1718 0.0000 0.0134 -0.0216 0.0001 -0.0109 -0.0514 0.0463 -2.9670 -0.0266 -0.0000 0.0005 -0.0248 -4.2775 0.0065 -0.0001 0.0600 -0.0002 
-0.0000 6.2488 0.0149 -0.0271 -0.0284 -0.0056 2.7856 0.0639 9.2683 0.0085 4.9630 -0.0000 -7.6695 0.0068 -1.1955 0.0475 0.0207 -15.0356 -10.5298 -0.0027 -0.0000 1.5595 0.8150 0.0036 0.0088 -0.0096 10.5923 -2.4203 8.7383 4.3385 1.2739 7.5804 
0.0000 7.2276 0.0052 -0.0247 -0.0044 -0.0014 0.7112 0.0036 6.0413 -0.0042 0.0197 1.9044 4.6349 -0.0233 0.0007 0.0096 0.0554 -22.6645 8.6982 0.0014 0.0042 -3.7190 -0.1521 -0.0009 0.1662 -0.0712 -18.5362 -2.1685 3.9909 -1.9546 2.3815 11.3328 
2.8959 -1.8159 0.0012 -0.0147 0.0062 0.0018 0.0481 0.0011 -0.2778 -0.0039 0.0001 0.0132 -0.9302 -0.0637 -0.0002 -0.0005 -0.0113 0.0016 0.0000 -0.0004 1.5958 0.9697 0.0002 0.1859 0.0000 -0.0004 0.0050 0.8907 0.0077 -0.0015 -0.6300 -0.0012 
0.0000 0.8848 3.3893 -0.0597 -0.0047 0.0020 3.2254 0.0134 1.4007 -0.0420 -0.0000 -0.0009 -6.4120 0.0300 0.8176 -0.0001 0.0509 -13.8728 0.4118 -0.0005 0.2017 0.0085 0.4546 0.0142 -0.0456 -0.0123 5.4661 2.7523 -4.5702 -7.7532 0.9181 7.3494 
-0.0121 3.6893 0.0072 -0.0296 -0.0095 0.0688 -0.0065 -0.0052 -2.1777 0.0079 0.3384 -0.0015 0.9220 0.0088 1.6722 -0.0004 -0.0110 -8.5701 4.3205 -0.0652 0.0005 0.1262 -0.0073 0.0133 -0.0235 0.0040 4.4281 -1.1869 2.2213 -0.0403 1.0625 -7.8110 
0.0002 -2.9602 -0.3130 -0.0368 -0.0035 -0.0009 2.4138 -0.0049 -4.6032 0.0067 0.9390 0.0864 0.1069 0.0089 0.0373 0.1126 -0.1031 12.0953 -10.0870 -0.0004 0.8889 2.6752 0.3605 -0.0507 -0.0023 -0.2129 -10.0421 -0.7198 1.5521 -0.0000 1.8291 6.9336 
-0.6254 1.9133 -0.0778 0.0249 -0.0054 0.0101 -0.2749 0.0040 -0.1432 0.0030 0.0053 1.3433 2.0920 0.0248 -0.7505 0.0649 0.0142 -2.6575 -0.0013 -0.0005 -0.0000 0.2404 0.1563 0.0029 0.0004 -0.0004 -0.0206 0.2373 -3.7350 1.2599 4.4247 -0.2898 
-0.3264 1.9582 -1.6366 0.0349 0.0138 -0.1291 -0.7032 -0.0092 -1.0721 -0.1269 -0.0000 -0.0000 -3.3429 0.0765 -0.2281 -0.0000 0.0210 -0.1009 0.0000 0.0164 0.0002 0.7641 2.5734 0.1923 -0.0000 -0.0132 0.0010 -4.8790 0.0014 -0.0002 1.4319 0.4099 
0.0000 -13.7610 -1.0786 -0.0001 -0.0117 0.0004 0.0116 -0.0109 -4.9757 0.0026 -0.0796 0.0030 5.9370 0.0127 -0.0911 0.0053 0.0452 19.7082 7.3998 -0.0053 -0.0011 -3.2502 -0.0075 0.0031 -2.2520 -0.0091 18.2129 -4.1555 -13.6512 14.9247 1.7709 -21.0552 
-0.3678 0.0166 0.0032 -0.0127 0.0270 -0.1537 1.5805 0.0755 -0.4779 0.0528 0.0003 0.0429 -0.1685 0.0248 -0.0143 -0.0000 -0.0370 -0.0056 0.0000 -0.0183 -0.3714 0.3359 -0.0044 0.0323 -0.0016 0.0132 0.0003 -1.0535 0.0000 0.0000 0.0020 0.0000 
-0.4287 0.5245 0.0324 0.0248 -0.0625 -0.0308 -2.6363 -0.0115 -1.3657 0.0127 -0.0000 -0.0001 -6.0892 -0.0293 -0.0000 -0.0022 0.0189 0.0001 -0.0000 0.0018 0.0000 -0.0203 3.0176 -0.0128 0.0045 -0.0294 -0.0005 -2.2934 -1.0619 -4.0621 1.9932 -0.0113 
-0.4121 -0.0000 -0.2968 -0.0590 -0.0013 -0.0124 -0.8292 -0.0023 1.4654 -0.0085 -0.0085 0.0110 -0.2785 -0.0089 1.9115 -0.0163 0.0216 -2.8988 2.9667 0.0010 4.2190 0.1642 0.0038 0.0004 -0.0193 0.0011 -0.0105 0.5393 -0.6593 -0.0006 -0.0195 0.0022 
0.0007 4.6113 -0.0335 0.0293 0.0981 0.0867 -0.0006 0.1245 1.7198 0.0464 0.0001 -0.0000 7.7881 0.0095 0.0050 -0.0001 -0.0088 11.3394 -4.1830 0.0445 -0.0000 -0.0018 0.9289 0.0000 -0.1495 -0.0223 -15.6598 -2.9990 -11.1689 -16.6494 -0.9206 8.5887 
