0.2102 2.5827 0.2581 -0.8148 -0.3003 -0.0362 0.2314 -0.5536 0.1904 -1.1842 -0.0862 0.1646 -1.8041 1.6116 0.7214 -1.2099 
0.1050 2.1418 0.1757 -0.8581 -0.3502 -0.0394 0.2802 -0.5039 0.2749 -1.0652 0.0238 0.2050 -1.4462 1.3547 0.7313 -1.0756 
-0.3857 -1.5218 -0.2967 0.4876 0.0107 0.1784 -0.0804 0.4289 -0.1647 0.6790 -0.1727 -0.1658 0.3616 -0.6470 -0.8249 0.7175 
-0.0399 0.2611 0.0874 -0.1292 -0.0802 0.0322 0.0640 -0.1077 0.0198 -0.1860 -0.0241 0.0120 -0.1283 0.1829 0.0888 -0.1700 
-0.2093 -0.9233 -0.1842 0.3265 0.0693 0.1091 -0.1093 0.3154 -0.1238 0.4854 -0.0809 -0.1486 0.2064 -0.3978 -0.5071 0.4649 
-0.1143 1.0309 -0.0123 -0.4944 -0.3230 0.1642 0.1509 -0.1794 0.1499 -0.5689 -0.1486 -0.0177 -1.2569 0.9801 0.0751 -0.7427 
0.1895 -0.0040 0.0931 -0.0596 0.1136 -0.0687 0.0293 -0.0931 0.0154 -0.0673 0.0844 0.1010 0.5161 -0.2024 0.1762 0.0811 
-0.0320 0.5064 0.0522 -0.2322 -0.1216 0.0662 0.0791 -0.1671 0.0677 -0.2363 -0.0810 0.0257 -0.4225 0.3555 0.1155 -0.3314 
0.0740 -0.2312 -0.0099 0.2038 0.1657 -0.0499 -0.1097 0.0770 -0.0611 0.2148 0.0012 -0.0138 0.2187 -0.2298 -0.0577 0.2783 
-0.1029 0.8767 -0.0194 -0.3695 -0.2593 0.1503 0.0934 -0.1325 0.1265 -0.4148 -0.0625 0.0165 -1.0137 0.7752 0.1102 -0.4975 
0.2466 -0.0645 0.0718 0.0794 0.1928 -0.2208 -0.0386 -0.0516 0.0468 0.1076 0.2593 -0.0020 0.5932 -0.3188 0.2551 0.1895 
-0.1726 -1.2242 -0.1727 0.5047 0.1870 0.0691 -0.1015 0.3791 -0.1573 0.6993 -0.0245 -0.1399 0.5240 -0.6485 -0.5144 0.6167 
0.4084 3.5084 0.4932 -1.2961 -0.4177 -0.2571 0.3525 -0.9666 0.4384 -1.7090 0.0987 0.3035 -1.6822 1.9297 1.3899 -1.7342 
0.1122 3.3111 0.3083 -1.1853 -0.4935 0.0159 0.3630 -0.7813 0.3630 -1.6351 -0.0817 0.2212 -2.4415 2.2054 0.9030 -1.7453 
-0.0383 1.4374 0.0474 -0.5124 -0.2619 0.1143 0.1421 -0.2821 0.1868 -0.7144 -0.1184 0.0863 -1.3591 1.0818 0.2491 -0.8217 
-0.0490 2.2106 0.1139 -0.9275 -0.4283 0.1483 0.2941 -0.5384 0.2788 -1.1535 -0.2467 0.2261 -1.9401 1.5982 0.4112 -1.1997 
0.0339 2.2743 0.1525 -0.7986 -0.3549 0.0620 0.2177 -0.4022 0.2109 -1.0382 -0.1292 0.1048 -1.8021 1.5626 0.5051 -1.0567 
0.2463 1.7039 0.2399 -0.7276 -0.2251 -0.0845 0.2290 -0.5015 0.2445 -0.9173 0.0605 0.1826 -0.9765 1.0516 0.7516 -0.9776 
-0.4033 -1.1400 -0.2940 0.3054 -0.1066 0.3020 -0.0483 0.4336 -0.1361 0.4941 -0.2414 -0.1298 -0.1194 -0.2917 -0.8521 0.4908 
0.0643 0.1627 0.1032 -0.1098 -0.0469 -0.0237 0.0488 -0.1249 0.1179 -0.0909 0.1117 0.0415 0.1040 0.0277 0.3521 -0.1498 
-0.2415 -0.5779 -0.2079 0.3549 -0.0098 0.1539 -0.0625 0.3308 -0.1127 0.4420 -0.1403 -0.1668 -0.2293 -0.0776 -0.5292 0.3272 
-0.0753 1.2353 0.0010 -0.7127 -0.3467 0.1474 0.2290 -0.3209 0.2331 -0.8079 -0.1191 0.0755 -1.3384 1.0462 0.2665 -0.8449 
0.2307 0.3155 0.1129 -0.2836 -0.0270 -0.0840 0.0455 -0.2160 0.0904 -0.2899 0.0843 0.1473 0.2219 0.0498 0.3061 -0.1059 
0.1021 0.4299 0.0645 -0.1731 -0.0391 -0.0097 0.0492 -0.2206 0.0116 -0.2768 -0.0098 0.0692 -0.1249 0.1792 0.2500 -0.3449 
-0.1061 -0.2979 -0.0637 0.2663 0.1042 -0.0038 -0.0872 0.2178 -0.1484 0.3188 -0.0565 -0.0470 0.1533 -0.3024 -0.2032 0.3017 
-0.1001 1.0555 -0.0603 -0.4418 -0.3507 0.1254 0.1155 -0.1834 0.1061 -0.4942 -0.1186 -0.0048 -1.3508 0.9862 0.0134 -0.5705 
0.0993 -0.0215 0.0018 0.0111 0.0743 -0.1671 -0.0158 0.0469 0.0561 0.0507 0.1856 0.0072 0.4031 -0.1560 0.1382 0.1306 
-0.3111 -1.0227 -0.2324 0.5154 0.1052 0.1039 -0.1791 0.4227 -0.2162 0.6505 -0.0731 -0.1983 0.2164 -0.4531 -0.6617 0.5830 
0.5448 3.3044 0.5144 -1.3145 -0.3821 -0.2663 0.3738 -0.9583 0.4405 -1.7123 0.2304 0.3005 -1.3999 1.7527 1.5045 -1.6964 
0.2171 3.0801 0.2942 -1.1366 -0.4333 0.0050 0.3123 -0.7967 0.3863 -1.5875 -0.0192 0.2494 -2.0913 1.9011 1.0040 -1.6759 
0.0007 1.0766 0.1405 -0.4208 -0.1547 0.0441 0.1056 -0.2411 0.1686 -0.5818 -0.1252 0.1406 -0.8845 0.8021 0.3638 -0.6692 
0.1059 2.4774 0.1534 -1.0758 -0.4203 0.0746 0.3548 -0.6616 0.3911 -1.3130 -0.1172 0.2725 -2.1533 1.8138 0.6196 -1.3380 
-0.0580 1.0570 -0.0935 -0.0615 -0.1165 -0.0285 -2.6356 -0.2246 0.2340 -2.4871 0.2321 -0.4960 0.0769 -0.7376 -0.2684 0.0514 
-0.0891 1.1254 -0.0045 -0.0060 0.0058 0.0121 -0.1903 0.0023 0.1715 -0.1688 0.0166 -0.0370 -0.0699 -0.0606 0.0181 0.0197 
-0.0755 0.9293 0.0487 0.0262 0.0256 0.0777 1.5390 0.3453 0.2834 1.3825 0.0204 0.3429 -0.1222 0.6179 0.1467 -0.0936 
-0.0254 0.5427 0.0185 0.0959 0.0827 0.0469 0.7211 0.0013 0.0491 0.6903 -0.0718 0.0861 -0.0356 0.2069 0.0638 -0.0212 
-0.0232 0.3332 -0.0669 -0.0618 -0.0422 0.0411 -0.3598 0.0553 0.1216 -0.4377 0.1013 -0.1096 0.0445 -0.0929 -0.0669 -0.0227 
-0.1686 2.0386 0.0892 0.1232 0.0747 0.0147 1.4052 0.2870 0.4920 1.3069 0.0807 0.2411 -0.1531 0.5216 0.1217 -0.1104 
0.0611 -1.0177 -0.0259 -0.0161 -0.0116 -0.0091 -0.4620 -0.1548 -0.3071 -0.3918 -0.0650 -0.1258 0.0979 -0.2422 -0.0754 0.0224 
-0.0872 0.5363 0.0122 0.0539 0.0238 0.0521 -0.3403 0.0079 0.1471 -0.2987 0.0727 -0.0314 -0.0139 -0.1039 -0.0170 -0.0357 
0.0542 -0.4822 -0.0994 -0.0853 -0.0471 -0.0068 -0.9973 -0.1132 -0.0818 -0.9737 0.0641 -0.1579 0.0443 -0.2699 -0.1097 0.0361 
-0.0980 1.3693 -0.0209 0.0282 -0.0014 0.0533 -0.3150 0.0173 0.3700 -0.3038 0.1144 -0.1394 -0.0736 -0.0931 -0.0614 -0.0068 
0.1176 -1.7519 0.0510 0.0415 0.0470 -0.0625 0.3279 0.0496 -0.4549 0.2765 -0.1844 0.1210 -0.0481 0.1059 0.0685 0.0400 
-0.0461 0.1416 -0.0271 -0.0253 -0.0107 0.0229 -0.2897 -0.0144 0.0910 -0.3759 0.0886 -0.1055 -0.0042 -0.1485 -0.0591 0.0097 
0.0607 0.0551 -0.0278 0.0808 -0.0824 -0.0112 -1.9468 -0.3172 -0.1134 -1.7798 -0.0504 -0.3718 0.0056 -0.7524 -0.1163 0.0791 
-0.1066 2.1800 -0.1087 -0.0107 -0.1528 -0.0131 -2.2096 -0.2006 0.4482 -2.1211 0.1787 -0.3842 0.0471 -0.7709 -0.2566 0.0024 
-0.1139 2.1373 -0.0423 0.0004 -0.1502 -0.0196 -1.4159 -0.1621 0.4242 -1.3308 0.1709 -0.2501 -0.0195 -0.5089 -0.1431 0.0231 
-0.1364 2.9956 -0.0570 -0.0071 -0.1603 0.0544 -2.9931 -0.3683 0.5329 -2.8085 0.1997 -0.6108 0.1101 -1.0739 -0.2918 0.1227 
