1.5329 -0.4382 1.1734 1.2465 1.7693 -1.2624 -0.7160 1.1274 -0.9604 0.2019 -0.0938 0.5787 -0.5972 0.0826 1.9922 1.7854 
-0.1841 0.0723 -0.1045 -0.1194 -0.2325 0.1524 0.1070 -0.1043 0.1359 -0.0495 -0.0616 -0.0628 0.0861 -0.0503 -0.2040 -0.1705 
-0.1394 0.0841 -0.1744 -0.1109 -0.1609 0.1341 0.0410 -0.1036 0.1355 -0.0425 -0.0177 -0.0974 0.1031 -0.0422 -0.2161 -0.2376 
-0.1579 0.0066 -0.1099 -0.1163 -0.1682 0.1403 0.0708 -0.0851 0.1204 -0.0337 -0.0021 -0.0583 0.0389 0.0103 -0.2531 -0.2408 
-0.1801 0.0311 -0.0844 -0.1581 -0.1737 0.1140 0.0317 -0.1240 0.1025 -0.0435 0.0485 -0.0783 0.0486 -0.0259 -0.2220 -0.2494 
-0.1267 0.0088 -0.1179 -0.1670 -0.1969 0.0663 0.0831 -0.1821 0.1073 -0.0256 0.0161 -0.0392 0.0696 0.0079 -0.1981 -0.1706 
-0.2185 0.0675 -0.1718 -0.0946 -0.1862 0.0984 0.0597 -0.1166 0.0873 -0.0366 0.0574 -0.0410 0.0653 -0.0367 -0.1787 -0.2189 
-0.1582 0.0686 -0.1197 -0.1723 -0.1898 0.0951 0.0415 -0.1032 0.1226 -0.0904 0.0161 -0.1266 0.1260 -0.0084 -0.1955 -0.1710 
-0.1960 0.0953 -0.0992 -0.1579 -0.1492 0.1243 0.0890 -0.1324 0.0890 -0.0307 -0.0341 -0.0331 0.0220 0.0329 -0.2600 -0.1968 
-0.1777 0.0706 -0.1180 -0.1018 -0.1482 0.2172 0.0999 -0.1161 0.1613 0.0406 0.0628 0.0120 0.0093 0.0211 -0.1779 -0.2247 
