0.0195 -0.0058 -0.0223 -0.0251 -0.0388 -0.0064 -0.0176 -0.0319 -0.0683 -0.0100 -0.0265 0.0062 -0.0142 -0.0223 0.0101 -0.0026 
-0.0043 0.0000 -0.0000 25.1368 0.9076 0.0002 -0.0026 -0.0000 0.0214 28.1470 -0.0000 0.1354 -32.4700 -0.0000 0.0000 16.8702 
0.0136 -0.0258 -0.0310 0.0227 -0.0125 0.0022 -0.0453 0.0016 0.0616 -0.0397 -0.0570 -0.0115 -0.0052 0.0157 0.0364 0.0141 
-5.0134 0.0001 2.3840 0.5452 0.0002 0.0000 -3.6665 -5.7880 11.0132 0.0000 -0.0008 -0.0001 -0.0000 0.7098 4.6503 0.0002 
0.0488 -0.0007 -0.0005 -0.2307 0.0044 -0.0002 0.0454 -0.0002 0.0145 0.1105 0.0032 -0.0004 0.0037 0.0010 0.0094 0.2527 
-0.0045 -0.0052 0.0060 -0.1047 -0.0910 -0.0109 0.0515 -0.0714 0.1463 0.1258 -0.0118 0.0290 0.0402 0.0208 0.0059 0.0554 
0.0388 -0.0001 -0.0000 -0.0311 0.0086 0.0004 0.0484 -0.0000 0.1129 0.6254 -0.0000 -0.0000 -0.0009 0.0000 -0.0001 0.1731 
0.1454 0.0066 0.1440 -0.1298 0.0134 0.0026 -0.1312 0.1833 0.0416 -0.0077 0.0052 -0.0020 -0.0098 -0.0445 -0.1436 -0.0099 
-0.0294 -0.0118 0.0013 0.1421 -0.1611 0.0023 -0.1167 0.0281 -0.0610 -0.1705 -0.0092 0.0118 0.0960 -0.0067 -0.0065 0.0665 
-0.0061 -0.0030 0.0143 -0.0063 0.1010 0.0055 -0.0147 0.0202 -0.0706 0.0380 0.3570 -0.0023 -0.0068 -0.0142 -0.0469 0.0089 
-0.0406 0.0275 -0.0098 -0.0384 -0.0055 -0.0064 -0.0587 0.0313 0.0076 -0.0226 -0.0103 -0.0099 0.0127 0.0093 -0.0313 0.0256 
0.0430 -0.0060 -0.0554 0.0325 0.0382 -0.0044 -0.0222 -0.2988 0.2801 -0.0134 -0.0107 -0.0056 -0.0034 0.0214 0.0292 0.0015 
0.0319 0.0078 0.1090 -0.1750 -0.0023 0.0060 0.0852 0.2427 -0.2016 -0.0101 -0.0028 0.0037 0.0036 0.0160 0.0338 -0.0007 
0.0022 0.0022 -0.0133 0.0014 0.0464 0.0015 0.0064 0.1598 0.0422 -0.0468 0.2924 -0.0030 0.0044 -0.0064 0.0556 -0.1671 
-0.0335 -0.0000 -0.0532 0.0559 -0.0019 -0.0003 0.0502 -0.1629 -1.2171 -0.0026 -0.0026 0.0001 0.0003 0.0633 -0.6123 -0.0023 
-0.0331 -0.0020 0.0734 -0.0987 -0.0149 -0.0026 0.1296 0.1440 -0.0433 0.0055 -0.0124 -0.0090 -0.0165 0.0670 -0.0475 -0.0023 
-0.0633 0.0071 -0.0066 -0.0019 0.0728 0.0256 0.0827 0.0227 0.1287 -0.1774 -0.0013 0.0133 0.1153 0.0034 0.0080 -0.0470 
0.0142 -0.0001 -0.0011 -0.0131 0.0641 -0.0003 0.0170 -0.5866 -0.3392 0.0327 -0.0473 -0.0009 0.0007 0.0069 0.0328 0.0868 
-0.0037 0.0028 -0.0151 -0.0146 0.0174 -0.0043 0.0204 0.0416 -0.0363 -0.0151 -0.1957 -0.0025 0.0091 0.0193 -0.0022 0.1791 
-0.0038 0.0011 0.0128 -0.0073 -0.0366 0.0008 -0.0018 -0.1419 0.3844 0.0359 0.0213 -0.0005 0.0001 -0.0095 -0.2869 0.0941 
0.0782 -0.0035 -0.0213 -0.0027 0.0013 0.0123 -0.0987 0.0762 -0.0349 -0.0590 -0.0441 -0.0149 -0.0715 0.0044 -0.0481 -0.0677 
0.0016 -0.0009 0.0001 0.2910 0.0792 0.0020 -0.0234 -0.0013 0.1400 0.2420 0.0002 -0.0063 -0.2075 0.0004 -0.0008 0.2616 
-0.0735 -0.0117 -0.0031 0.0319 -0.0525 -0.0007 -0.0056 -0.0098 0.0225 0.0045 0.0061 0.0189 -0.0759 0.0164 -0.0377 0.0174 
0.0483 0.0005 -0.0106 -0.0042 0.0012 0.0026 0.1229 -0.1920 0.1673 0.0058 0.0033 0.0023 0.0009 0.0826 0.1267 0.0051 
-0.0134 -0.0012 -0.0228 -0.0092 0.0080 0.0007 0.0066 -0.7661 -0.0070 -0.0066 3.8260 -0.0001 0.0049 0.0366 0.5176 0.5601 
0.0004 -0.0003 -0.0297 -0.0095 -0.0238 -0.0010 -0.0046 1.4443 0.0181 0.0150 0.7667 -0.0001 0.0023 -0.0066 -0.4832 1.0241 
0.0006 -0.0075 -0.0196 -0.1003 -0.0777 0.0104 -0.0140 -0.0205 0.1174 -0.0250 0.0076 0.0474 -0.0260 0.0124 -0.0015 0.0535 
-0.0376 0.0053 0.0313 -0.0196 0.0182 -0.0154 -0.0305 -0.0105 -0.0358 0.0412 0.0283 -0.0424 -0.0295 0.0197 0.0349 0.0222 
-0.0307 0.0117 0.0253 -0.0272 0.0127 -0.0080 -0.0009 0.0172 0.0128 -0.0275 -0.0307 0.0120 0.0203 0.0301 0.0708 0.1759 
-0.0042 0.0262 -0.0254 -0.0429 -0.0448 -0.0079 0.0020 -0.0211 -0.0288 -0.0220 -0.0164 -0.0110 -0.0455 -0.0313 -0.0424 -0.0387 
-0.0726 0.0048 -0.0507 0.0290 -0.0229 0.0027 -0.0485 0.2002 0.2984 0.0060 0.0120 0.0041 0.0008 0.0102 0.1250 -0.0256 
-0.0752 -0.0051 -0.1706 -0.0489 -0.0011 0.0015 0.0852 0.1254 0.3089 -0.0085 -0.0058 0.0058 -0.0089 -0.1629 -0.2454 -0.0032 
