0.2845 0.0434 -0.9209 0.1147 -0.4924 -1.3496 0.5176 0.5260 -0.5191 -0.7115 0.4489 0.5725 0.7085 0.2237 0.6099 1.0523 
-0.2273 -0.0475 0.7253 -0.1265 0.3376 1.1279 -0.4324 -0.5285 0.4316 0.5407 -0.3818 -0.4637 -0.5949 -0.2673 -0.5328 -0.8660 
0.1637 0.0711 -0.7074 0.0862 -0.3594 -1.0599 0.3403 0.4291 -0.3824 -0.5065 0.3949 0.4888 0.5558 0.1829 0.4799 0.8211 
-0.2091 -0.0310 0.6388 -0.1323 0.3455 0.9671 -0.3373 -0.3804 0.3570 0.4255 -0.3251 -0.4532 -0.5366 -0.1551 -0.4097 -0.7236 
-0.2510 -0.0300 0.9036 -0.1324 0.4204 1.3861 -0.4935 -0.5354 0.4511 0.6985 -0.4617 -0.5542 -0.7210 -0.2676 -0.5529 -1.0076 
0.0720 0.0131 -0.3778 0.0193 -0.1596 -0.5451 0.2180 0.2492 -0.1555 -0.3066 0.2257 0.2095 0.2614 0.0895 0.2342 0.4375 
-0.0636 0.0134 0.1320 -0.0112 0.0800 0.2233 -0.0844 -0.0669 0.0549 0.0750 -0.0496 -0.0978 -0.1212 -0.0407 -0.0619 -0.1598 
-0.1322 -0.0527 0.6313 -0.0911 0.2912 0.9130 -0.3441 -0.3886 0.3434 0.4932 -0.3179 -0.3666 -0.5010 -0.1409 -0.4069 -0.6771 
0.0336 0.0260 -0.1244 -0.0162 -0.0880 -0.1297 -0.0091 0.0367 -0.0275 -0.0471 0.0758 0.0254 0.0447 0.0467 0.0814 0.0577 
-0.2163 -0.0635 0.6956 -0.0897 0.3542 1.0416 -0.3842 -0.4187 0.3884 0.5023 -0.3709 -0.3798 -0.5222 -0.1600 -0.4395 -0.7899 
-0.1937 -0.0451 0.6638 -0.1200 0.3042 1.0090 -0.3204 -0.3877 0.3089 0.5120 -0.4001 -0.4680 -0.5496 -0.1665 -0.4523 -0.7568 
-0.0229 -0.0334 -0.0603 0.0503 -0.0572 -0.0551 0.0140 0.0491 0.0283 0.0193 0.0561 0.0083 0.0324 -0.0072 0.0211 0.0795 
0.0306 0.0580 -0.3222 0.0305 -0.1928 -0.5072 0.1202 0.1510 -0.1354 -0.2600 0.1538 0.1673 0.2924 0.1198 0.2045 0.3091 
-0.0217 -0.0053 0.2121 -0.0902 0.1648 0.3839 -0.0846 -0.1146 0.1204 0.2083 -0.1387 -0.1099 -0.2271 -0.0339 -0.1093 -0.3112 
-0.0167 -0.0161 0.0882 0.0042 0.0639 0.1555 -0.0280 -0.0783 0.0759 0.0407 -0.0550 -0.0423 -0.0378 0.0168 -0.0277 -0.0821 
0.0885 -0.0167 -0.2543 0.0612 -0.1214 -0.4181 0.1423 0.1437 -0.1490 -0.1855 0.1074 0.2036 0.2409 0.0438 0.2052 0.3021 
0.2399 -0.0174 -0.8872 0.0329 -0.4285 -1.3244 0.4634 0.4840 -0.4424 -0.6912 0.5399 0.5749 0.7128 0.1565 0.5657 1.0505 
-0.1432 0.0122 0.6064 -0.0605 0.3245 1.0880 -0.3267 -0.3310 0.3636 0.6042 -0.3668 -0.4536 -0.5360 -0.1526 -0.4148 -0.8011 
0.1633 0.0439 -0.6885 0.0573 -0.3509 -1.1539 0.4259 0.4217 -0.4594 -0.5800 0.4094 0.4746 0.5446 0.0334 0.4370 0.8831 
-0.1221 0.0171 0.4896 -0.1224 0.2658 0.8752 -0.3283 -0.2586 0.2745 0.4362 -0.2985 -0.3599 -0.4738 -0.1432 -0.3445 -0.5684 
-0.2322 -0.0355 0.7909 -0.0517 0.3892 1.2773 -0.4347 -0.4707 0.4213 0.7042 -0.4487 -0.5523 -0.6477 -0.1353 -0.5079 -0.9296 
0.0915 0.0220 -0.2784 0.0242 -0.1512 -0.5472 0.1831 0.1433 -0.2203 -0.3112 0.2276 0.1838 0.2700 -0.0716 0.2265 0.3903 
-0.0167 0.0308 0.0663 0.0603 -0.0330 0.1462 -0.0326 -0.0136 0.0003 0.1165 -0.0727 -0.0252 -0.0893 0.0564 0.0089 -0.0688 
-0.0955 -0.0105 0.5085 -0.0270 0.2291 0.8522 -0.2516 -0.2768 0.2796 0.4342 -0.2897 -0.2940 -0.4623 -0.0244 -0.2679 -0.6287 
-0.0235 0.0210 -0.0340 -0.0256 -0.0426 -0.0941 0.0173 -0.0299 0.0101 -0.0778 -0.0149 0.0802 0.0432 0.0072 0.0282 0.0179 
-0.2480 -0.0686 0.7710 -0.0580 0.3965 1.1083 -0.3766 -0.5073 0.4320 0.6303 -0.4861 -0.4119 -0.5187 -0.1362 -0.4889 -0.9131 
-0.1171 0.0026 0.5838 -0.0716 0.3175 0.9718 -0.3068 -0.3137 0.3641 0.5344 -0.3485 -0.4077 -0.5162 -0.0680 -0.3360 -0.7400 
0.0339 0.0228 -0.1072 0.0275 -0.0203 -0.0698 0.0680 0.0538 -0.0667 -0.0116 0.0517 0.0309 0.0486 0.0661 0.0492 0.0572 
0.0812 0.0414 -0.2631 0.0665 -0.1307 -0.3762 0.0871 0.1155 -0.0577 -0.1700 0.1031 0.1257 0.2931 0.1018 0.1690 0.2340 
-0.0205 0.0535 0.1424 0.0326 0.0518 0.3651 -0.0154 -0.0711 0.0920 0.2369 -0.1738 -0.0973 -0.0956 0.0290 -0.1135 -0.2163 
-0.0509 -0.0000 -0.0023 0.0661 0.0668 0.1226 -0.0560 0.0143 0.0803 0.1489 -0.1363 -0.0666 0.0060 0.0897 0.0196 -0.1207 
0.0117 -0.0415 -0.1715 0.0073 -0.0909 -0.2680 0.0119 0.0821 -0.0586 -0.2230 0.0998 0.1523 0.1584 -0.0138 0.0580 0.1917 
0.2330 -0.1616 -0.1456 -0.0890 -1.0639 0.0711 -0.0376 0.0008 -0.0635 -0.0264 -0.0717 -1.2946 0.8993 -0.0921 -0.1200 0.1958 
0.0068 -0.0911 -0.0395 -0.0306 0.6976 -0.0478 -0.0323 -0.0840 -0.0239 0.0443 -0.0135 0.9931 0.2403 -0.0745 -0.0654 0.3130 
-0.0114 0.1673 0.0243 0.1597 -0.7641 -0.0231 0.0698 0.0989 0.1133 0.0555 0.0698 -1.0686 -0.3340 0.0952 0.1232 -0.3810 
0.0263 -0.0647 -0.0179 -0.0932 0.8922 -0.0196 -0.0233 -0.0624 -0.0093 0.0108 -0.0835 1.2110 0.1795 -0.0427 -0.0681 0.4285 
0.0277 -0.1794 -0.0297 -0.1411 1.0690 -0.0673 -0.1002 -0.1112 -0.0953 -0.0173 -0.0780 1.4128 0.2575 -0.0898 -0.0519 0.4696 
0.0424 -0.1707 -0.0960 -0.1126 0.2315 0.0115 -0.0736 -0.0683 -0.1165 0.0025 -0.0665 0.2860 0.3499 -0.0226 -0.0728 0.2676 
0.0610 0.0655 0.0175 0.0194 -0.7211 0.0992 0.0276 0.0969 -0.0310 -0.0322 0.0303 -0.9499 0.0620 0.0105 0.0513 -0.2652 
-0.1194 0.1639 0.0533 0.1243 0.2358 -0.0434 0.1107 0.0611 0.0631 0.0494 0.0384 0.2946 -0.5979 0.0973 0.1174 -0.2989 
-0.1959 0.1471 0.0619 0.1528 0.1130 -0.0375 0.0760 0.0711 0.0703 0.0758 0.0732 0.0921 -0.7443 0.0243 0.1130 -0.3567 
-0.0167 -0.1396 -0.0081 -0.1661 1.4084 -0.0449 -0.0328 -0.1130 -0.0725 0.0479 -0.0615 1.9228 0.1267 -0.0844 -0.1304 0.4867 
-0.1053 0.0117 0.0138 0.0467 0.2741 -0.0706 -0.0108 -0.0168 0.0593 0.0371 0.0064 0.4212 -0.3319 0.0585 -0.0015 -0.1025 
0.0786 0.2068 0.0761 0.1124 -0.8528 0.0584 0.0646 0.1440 0.0494 -0.0028 0.1294 -1.1006 -0.1471 0.1270 0.1120 -0.3794 
-0.0600 0.1214 0.0817 0.0869 -0.5660 -0.0205 0.0269 0.0485 0.0943 0.0113 0.1269 -0.7302 -0.2911 0.0295 0.0643 -0.3699 
0.2462 -0.1710 -0.1033 -0.1274 -0.2737 0.0645 -0.0895 -0.0938 -0.0797 -0.0980 -0.1125 -0.3063 1.0023 -0.0289 -0.1224 0.3909 
0.0535 0.1086 -0.0207 0.0835 -0.6711 0.0180 0.0147 0.0385 0.0903 -0.0474 0.0955 -0.8892 -0.2459 0.1112 0.1099 -0.3962 
-0.2275 0.0957 0.0742 0.1222 0.1895 -0.0482 0.0933 0.0197 0.1222 0.0839 0.0272 0.2371 -0.8373 0.0350 0.1146 -0.3342 
