-0.4376 1.0381 2.0761 -1.1817 -1.8615 1.2117 -2.0919 -1.2595 0.8637 -1.2478 -0.5874 2.3249 -0.7189 -0.7276 -0.8241 0.6357 
-0.2240 1.3234 0.3640 0.0436 0.4513 -0.2642 0.6906 0.3933 0.3697 -0.2097 -0.1487 1.0664 0.0085 -0.3200 -0.6189 0.5887 
0.3758 -0.6852 -0.3545 0.8220 0.9937 -1.2444 1.0260 -0.2195 0.1873 0.0906 0.5172 -0.6432 1.0484 0.3891 0.8044 -0.1546 
0.1706 0.2884 -0.8894 0.7839 0.3756 -1.6244 0.6602 -0.9957 -0.0619 0.1659 0.4403 1.0553 -0.9985 0.2619 -0.3855 -0.2165 
-1.0793 -0.3444 -0.9758 0.4502 -0.3963 1.2717 -0.2458 -0.3017 -0.6549 0.0397 -1.1716 0.0448 -0.0491 -1.4459 -0.0313 1.2689 
-1.0390 1.4837 0.6582 0.3794 -0.7140 1.1249 -0.5616 0.1489 1.1562 -0.3863 -1.0422 0.4812 0.2773 -0.9061 -0.4425 1.3807 
-0.2819 0.0587 2.6843 0.5282 -0.2283 2.6023 -0.3014 0.2711 -1.7245 -1.1402 -0.5881 2.4652 0.8508 -0.4896 0.4463 0.5639 
0.4295 -0.7567 2.1334 -0.1316 -0.7858 0.9655 -0.8293 0.0035 -0.4088 0.6622 0.4786 1.0460 -0.0569 0.6055 0.7650 -0.6742 
0.2957 -1.1784 -0.2176 0.0668 0.3085 -0.1086 0.6217 -1.2237 -0.9110 -0.4303 0.3983 1.2013 1.1438 -0.1122 1.0902 0.0605 
0.3148 1.3332 1.0817 -0.7420 -2.3368 -0.1612 -2.5923 -0.6627 1.4953 -0.0545 -0.0848 0.7151 -1.7572 0.3819 -1.5120 -0.3455 
-0.7047 -0.0424 -0.5280 0.2258 1.7238 -0.2460 1.7389 -0.0515 -0.7194 -0.8053 -0.3498 0.2083 0.6375 -0.8756 0.1147 0.7383 
1.3369 -0.2675 -2.8860 -0.4541 0.7957 -2.4166 0.8338 0.1125 -0.9891 0.9013 1.2387 -2.8634 -1.2055 1.3667 -0.7359 -1.7301 
-1.0907 -0.0208 2.1975 0.3724 -0.0062 2.5127 -0.1281 -0.0870 -0.3768 -0.4781 -0.7247 1.5609 1.0223 -1.1938 0.7618 1.1055 
-0.6896 -0.4857 0.2330 -0.7569 -0.1354 0.2956 -0.2545 -0.9642 1.0318 -0.7131 -0.4068 0.3244 0.7074 -0.5229 0.5169 0.5480 
-1.0950 -1.5435 0.8504 0.7000 0.0411 1.7520 0.0730 0.4626 -0.6669 -0.1105 -1.0731 0.1397 0.7276 -1.0973 1.0991 0.7825 
-0.4037 0.2920 1.3606 -0.3086 -1.1169 1.2467 -1.2946 -0.9957 1.4950 0.0343 0.0550 1.1272 1.3071 -0.7459 0.0551 0.3434 
1.3233 -0.1146 -3.0006 2.9549 3.0729 -1.5498 3.2091 2.3632 0.2629 0.4158 2.2054 -4.5499 0.1574 1.8640 0.2741 -1.7278 
1.5163 0.3069 -0.4964 1.0279 0.6554 0.2539 0.5167 1.3004 -1.2747 -2.3809 2.3410 -1.5826 -0.3239 1.4089 -0.9090 -1.4876 
1.0448 0.8863 0.6559 -1.3458 -1.7526 1.2154 -1.9532 -0.0191 -0.8923 0.8798 0.2641 1.4965 -1.5449 0.6368 -1.5691 -1.3713 
2.2921 -0.9973 1.6449 -1.5051 -1.2907 1.5855 -1.9404 -0.9721 -1.1513 2.0699 1.1092 -0.2707 0.2726 2.1814 0.3797 -1.9611 
0.0271 -0.5626 0.4955 -0.6548 1.3948 -1.1775 1.2488 1.1572 0.4557 -1.0924 1.0412 -0.7463 0.2814 0.6438 0.9565 -0.4102 
2.0155 0.3405 -1.2203 1.3167 1.9912 -0.8521 1.8864 2.1074 -1.4191 -1.8716 2.9999 -2.7125 -0.4194 2.2366 -0.6428 -2.1162 
0.1781 1.1698 -2.9162 1.7763 1.5576 -3.0561 1.7486 1.4894 1.3518 -2.0201 1.2404 -3.5409 -0.6661 0.6134 -1.0732 -0.2103 
-1.4832 -0.8689 -3.7494 -0.4486 0.7433 -1.3289 0.7377 -0.3986 1.3527 1.1763 -1.4272 -2.7227 0.7464 -0.8161 1.1396 1.1699 
2.3665 1.7410 0.2260 0.4430 -1.6851 0.0192 -2.1838 1.3910 0.5077 0.9809 1.1089 -0.4463 -2.3171 2.2602 -2.4458 -2.2025 
-1.5619 -1.7562 -3.9546 -0.5376 2.5713 -1.4658 2.8082 -1.7844 0.8647 2.0101 -0.6029 -3.4978 2.0911 -1.1755 2.4602 1.2160 
2.9478 0.8972 2.1708 1.5552 -1.3797 0.9128 -1.6000 1.6365 -0.5869 -1.2332 2.5336 1.6765 -0.6277 2.6216 -0.6340 -2.3375 
-3.5213 -0.6873 2.4324 -3.5394 -2.0180 1.3345 -1.9950 -4.0951 0.7808 0.6456 -3.9765 3.9418 0.8524 -3.9529 0.8199 3.9188 
3.7980 1.4840 -1.0144 4.0714 1.1960 -1.3812 1.0245 4.4169 0.2282 -2.5944 4.0331 -2.2656 -1.2724 3.9529 -1.2976 -3.6948 
2.8030 1.3800 0.4107 1.8799 -0.9877 -0.6268 -0.9595 1.4008 -0.4747 0.9970 1.9930 0.4290 -1.4682 2.8455 -1.3340 -2.8308 
-0.9723 0.6779 -1.0116 -0.6012 -0.0617 -1.9077 -0.0865 -0.4275 1.8214 1.3239 -1.7810 0.2266 -0.8216 -0.8696 -0.1896 1.0288 
2.5295 1.3652 -1.7505 3.8055 1.7154 -1.9436 1.7066 3.7606 -0.1836 -1.7647 2.6605 -3.0116 -1.2930 2.6355 -1.2556 -2.3465 
16.5767 1.5241 4.5084 12.7892 -0.6305 0.2145 -1.6762 0.3088 1.5372 6.3695 11.6154 2.9838 -6.5421 0.6819 -5.0112 -3.4901 
3.2175 2.0011 1.1252 -2.8973 -1.6102 2.0008 -7.2993 -3.7486 -1.9330 3.5880 0.3635 -1.7222 4.4636 -6.5831 2.9983 2.6967 
-12.4339 6.2378 0.1924 -9.1084 0.1756 1.9419 -0.7323 -0.5629 -4.3654 -2.0520 -10.2582 -0.5349 4.8996 -2.8683 5.3297 2.1343 
-18.0494 4.6309 -4.2382 -16.7466 4.2305 5.1406 1.6277 4.2627 -6.3730 -14.4110 -17.0161 -1.3140 1.3270 -5.6483 3.4633 1.5478 
-18.3435 -10.7899 -0.0261 -4.3198 -0.5692 8.3952 -1.6805 5.7668 -5.9223 -3.8279 -4.8058 -3.1836 -12.3659 -8.1605 -5.9701 -4.4174 
3.9187 -4.8728 2.7149 4.3130 -4.4335 3.7368 -6.4921 2.5826 0.8927 6.0569 5.2744 -2.8238 -10.2796 1.5641 1.0743 -0.0299 
26.7726 -0.0759 4.5296 21.7587 -0.3302 -6.4994 -4.1697 -3.6658 5.8392 18.9197 25.1508 4.5830 2.3788 7.8526 -5.9593 2.2247 
19.4883 8.8670 4.8724 10.7962 -0.0230 -6.5588 -3.8148 -5.7254 5.0294 11.0837 11.8172 -0.4302 10.8582 6.5544 0.5259 6.2169 
3.6556 6.3075 0.4331 0.2492 4.2271 1.5725 -0.5532 -7.9465 -0.1281 -2.5116 5.0066 -2.1571 7.2829 2.7143 0.4277 5.1011 
6.3085 2.0636 3.4044 1.6972 -2.8081 0.1264 -6.6839 -2.4595 -2.2988 6.2830 3.6109 -2.7565 0.8335 -5.1093 1.2891 3.4534 
4.0771 -1.6338 -3.9844 0.4709 1.6900 -1.5551 1.9233 3.0282 3.6722 1.1605 1.9517 -0.0359 3.5523 5.8696 -1.0679 4.4748 
-18.4740 -6.1813 -2.0179 -12.6019 -1.6145 3.9706 4.9950 1.4367 1.1422 -14.4618 -8.6167 -0.3858 -8.0754 1.4176 7.1324 -6.2242 
31.8657 -0.5249 4.5119 26.5882 0.1596 -3.5256 0.3730 -0.3531 5.1291 19.7343 20.6220 4.4504 5.1091 10.3042 -11.2811 3.5417 
4.9685 1.7433 -2.2553 0.8791 2.7328 -2.5529 -0.5807 -1.4953 2.2551 1.4240 2.4703 -4.8059 7.5311 1.2935 -3.6152 9.4161 
-0.7673 2.3261 -0.7134 5.4254 0.9312 -1.4337 -2.1166 -1.5109 -1.2228 4.4084 4.6771 -7.1756 3.8973 3.0081 -1.2877 9.1673 
13.4244 -4.0943 2.2826 14.5950 -2.5346 -7.1018 -0.9599 -2.5620 6.6708 2.2886 13.7215 3.0843 -4.6560 0.5025 -8.1231 -7.0144 
