-0.0064 -18.7757 -19.5510 -1.9548 -0.0000 0.0136 -9.2706 -23.6715 -4.0914 -19.7156 -0.0000 -0.0084 4.5583 -13.1367 0.1530 0.0576 -3.5013 1.7143 -0.0224 -8.7077 0.1437 2.3322 0.0000 -9.0648 0.1814 -10.9586 -3.2463 -8.1646 3.3616 -4.3696 -8.9227 0.0000 
-0.2863 -15.9967 -0.0553 -0.7873 4.0318 0.0000 -15.8414 49.5846 -11.6416 44.4143 7.5069 -7.6882 -5.4200 11.7979 0.0000 -0.0000 -5.9697 -15.3559 0.0003 -13.5908 -0.0554 -15.8895 -0.0003 24.7822 -27.6245 -20.9105 -12.8961 -13.4669 -1.3775 -7.8777 -10.1426 -15.0430 
-0.1248 -6.5808 4.5332 -0.2095 12.8552 -4.0388 -29.5269 40.6168 6.0642 -15.4718 -22.4160 -13.6114 -3.7335 9.7291 0.0000 5.3314 5.5873 -31.5039 -0.0000 8.0296 0.0009 3.8279 -0.0000 5.0150 -10.6903 -14.3802 5.0489 14.0370 0.0489 5.1666 -19.0793 21.8469 
0.0249 14.3219 12.6491 -6.2193 -0.0000 0.0236 -4.7262 2.9007 -13.2666 -3.8823 -0.0000 0.0427 -47.1662 6.0043 0.0000 6.0453 -41.9947 1.2094 -0.0000 -10.2672 -0.0000 -5.0196 -5.3132 -22.1939 -16.3689 -49.8646 -33.1676 -12.9230 -20.1242 2.5932 -5.4893 -12.0030 
-0.0228 -5.3541 0.0965 -6.6773 11.3333 0.0000 -12.8312 -12.4466 -9.6618 14.6794 3.1876 -19.2086 -2.3358 -12.7913 -1.3612 -2.3753 -3.8440 14.9994 0.0000 1.4462 0.0000 9.8851 -0.0000 14.4197 6.8691 11.4943 -3.3578 8.3069 6.0031 -11.6036 2.4239 -3.4479 
0.3512 -5.2716 0.5528 -7.8329 22.7458 -26.4529 42.7494 -29.8177 -4.9105 -3.5057 -39.2904 23.8227 6.7135 17.8349 -12.8835 -8.5854 -0.7581 31.7401 -0.0000 -10.6432 0.0000 -1.9273 12.2307 3.6304 7.8266 -22.5199 3.3384 -4.0425 -0.0430 -10.6000 16.4303 -28.4237 
-0.0041 11.4713 12.7483 -13.4377 5.5013 21.9690 -1.3268 -9.4769 -3.9911 2.7240 -0.7752 1.0321 35.0162 -12.6092 13.9023 17.0870 24.2914 0.6763 -0.0000 1.4512 -0.0000 -1.7007 -41.4216 -18.0743 -17.9669 24.8717 45.0483 -42.9669 -11.0827 14.0860 -1.8399 10.0513 
-0.0063 4.3037 0.0004 12.2765 -5.5493 23.4856 4.0043 -19.6934 -4.1744 2.8485 -5.4682 -18.9639 32.7034 12.9086 19.9474 7.0579 33.3491 -0.9230 0.0000 -25.0557 -0.0000 -0.5498 -55.0090 -37.3621 11.8382 -26.8389 -43.6324 30.1164 7.8087 11.7135 0.5768 8.6904 
-0.0267 9.9014 -8.7109 0.4963 4.7135 0.7062 2.5113 22.2880 14.5761 2.9773 0.0000 0.4598 -38.3412 -2.0284 -41.0524 -5.3562 -42.8924 -0.0000 0.0000 15.5847 -0.0000 3.7352 -11.5346 14.9692 16.8527 -43.5960 13.9240 -7.3864 -18.5231 -26.5677 -5.9215 -2.6060 
-0.2347 -8.5925 6.4224 -7.1112 -0.0000 0.0000 -2.4340 -10.7455 -10.9406 -7.6414 -8.4329 -0.0355 8.8650 -16.9955 -0.0658 1.9981 5.9346 0.0000 0.0003 -7.1960 0.0000 -10.2437 -0.0037 22.1499 14.7456 -9.1799 3.2993 -18.5880 1.5398 2.6395 7.1059 0.5328 
-0.0141 -12.8364 -8.8996 -4.9455 0.0000 0.0011 -3.6193 -32.8433 -11.6880 -17.4498 0.0000 0.0501 -6.0015 4.6562 -0.0296 -2.0194 -5.2250 0.0000 -0.0000 6.4805 -0.0051 -6.0339 0.0000 12.5451 -9.5806 -17.1178 5.0833 -17.1282 3.5153 8.6109 -4.9859 0.0000 
-0.0017 14.0380 21.3585 -34.1885 0.0000 20.2569 -1.3909 -8.1355 -3.5051 -9.9073 0.0000 17.1729 -41.7907 7.3559 11.6397 -18.0906 -30.3971 -2.8628 -0.0027 -13.6732 -0.0000 0.4658 -28.9989 -33.8495 -17.0228 -38.9817 -43.3121 -38.9308 -12.7001 29.1787 -2.9232 5.3663 
-0.0070 25.8997 -18.5255 -19.2491 -0.0000 0.0000 -3.0711 -50.7953 -10.6255 -37.2792 11.0102 -0.0427 -11.7877 9.5345 -0.0000 -1.0527 11.4382 -2.8279 -0.0074 -27.3933 0.0016 -17.0033 -0.0046 -21.7926 30.8500 22.1241 -9.7048 -20.2258 -2.1239 3.4006 -15.1875 0.3555 
-0.0124 -10.7638 -10.3641 16.9152 -0.0000 -0.0000 -4.2092 0.0000 -14.1479 -5.1026 0.0000 -0.0504 -18.9201 12.6244 -0.0000 0.0000 -29.0543 0.0000 0.0000 6.3220 -0.0000 -0.2011 -0.0020 -25.1755 15.6058 -20.5399 10.2304 8.0294 2.9716 -24.0865 9.4630 -0.0000 
0.3627 15.4533 7.2330 3.0181 -13.5060 6.9167 4.7295 -24.3132 -4.7936 -11.4938 -14.2979 1.1486 -7.5643 4.2223 -21.6704 11.6085 -8.3661 4.8089 -0.0000 -2.7372 -0.0000 -7.5864 8.2441 9.9231 -15.0928 -16.3449 6.9363 13.1178 3.7351 7.2574 -4.5992 7.6326 
-0.0182 -14.7755 1.8904 -8.1498 -45.0589 0.0000 -88.7418 33.6010 -4.5904 22.0427 -54.9058 13.1062 6.9514 16.2635 8.0592 0.1254 -1.0998 -81.6416 0.0000 5.3900 0.0091 18.3266 0.0038 12.3263 -14.3231 -13.1899 -9.0102 -12.3265 -50.7150 8.9517 24.6221 -28.3847 
