0.5515 -0.1605 0.0726 -0.8899 0.5638 -0.3139 0.3535 -0.4958 0.1664 -0.5955 0.0071 -0.1936 0.3125 -0.0682 -0.2741 -0.7779 
0.2458 -0.1046 0.0958 -0.2171 0.2489 -0.2095 0.1558 -0.1716 0.1057 -0.1675 0.0831 -0.1728 0.1330 0.0044 -0.0460 -0.3840 
-1.1619 0.2837 -0.1271 1.6770 -1.1127 0.5423 -0.5564 0.9563 -0.3478 1.0306 0.0479 0.2175 -0.5277 0.1259 0.4455 1.4739 
1.3481 -0.3693 0.1476 -1.9292 1.3068 -0.7169 0.7224 -1.1377 0.3984 -1.2366 -0.0270 -0.4368 0.6460 -0.1122 -0.5486 -1.7703 
0.7782 -0.2223 0.1166 -1.0664 0.7502 -0.4150 0.3827 -0.6031 0.1971 -0.6599 0.0567 -0.1820 0.3947 -0.0822 -0.2782 -1.0059 
0.3435 -0.1048 0.0025 -0.5265 0.3406 -0.2199 0.1579 -0.3142 0.1180 -0.2894 -0.0163 -0.1256 0.1995 -0.0245 -0.1347 -0.4091 
1.0560 -0.2700 0.0815 -1.5396 1.0108 -0.4432 0.4922 -0.9133 0.3439 -1.0032 -0.1316 -0.2397 0.5116 -0.0390 -0.4096 -1.3072 
-1.1792 0.3139 -0.1479 1.7060 -1.1343 0.6235 -0.5486 0.9464 -0.3869 1.0801 0.0043 0.3110 -0.5382 0.1075 0.4808 1.5541 
-0.6820 0.1449 -0.0590 1.0422 -0.6112 0.3081 -0.3839 0.5233 -0.1689 0.5460 0.0546 0.0742 -0.2877 0.0157 0.2155 0.8345 
-1.3390 0.3636 -0.1413 1.9543 -1.4188 0.7615 -0.7135 1.1157 -0.3761 1.3450 -0.0187 0.4685 -0.6571 0.0485 0.5594 1.8660 
0.6350 -0.1310 0.0954 -0.9189 0.6268 -0.3237 0.3768 -0.5862 0.2280 -0.6001 -0.0258 -0.1738 0.3286 -0.0576 -0.2603 -0.8923 
-1.8983 0.4687 -0.2005 2.9191 -1.9068 1.0764 -1.0636 1.6725 -0.5614 1.8375 0.0424 0.5805 -0.9903 0.1028 0.7708 2.6128 
-0.6324 0.1539 -0.0626 0.8606 -0.6702 0.3488 -0.3038 0.5411 -0.2399 0.6278 -0.0064 0.2357 -0.3315 0.0810 0.2684 0.7991 
-0.5984 0.0967 -0.0747 0.8758 -0.5484 0.2053 -0.2885 0.4362 -0.1730 0.5539 0.0798 0.1488 -0.3239 0.0103 0.2445 0.6362 
-0.1940 0.0334 0.0224 0.3269 -0.1200 0.0569 -0.1008 0.2239 -0.0855 0.1319 0.0358 0.0049 -0.1429 0.0109 0.0774 0.1798 
0.4820 -0.1221 0.0836 -0.6700 0.4982 -0.3098 0.2984 -0.4397 0.1064 -0.4292 -0.0169 -0.1710 0.2666 -0.0148 -0.2089 -0.6788 
0.5364 -0.2108 0.0939 -0.8889 0.5328 -0.3185 0.2575 -0.4448 0.1453 -0.5010 0.0060 -0.1531 0.2488 -0.0414 -0.2359 -0.7352 
0.2797 -0.1279 0.1112 -0.3423 0.3329 -0.2591 0.1462 -0.1962 0.1156 -0.3140 0.1149 -0.1961 0.1068 -0.0509 -0.1531 -0.5031 
-0.7555 0.2104 -0.1131 1.0432 -0.7332 0.3400 -0.4028 0.5953 -0.2301 0.6337 0.0258 0.1601 -0.3090 0.0176 0.2210 0.8928 
1.2454 -0.2836 0.1132 -1.7482 1.2414 -0.6717 0.6742 -0.9814 0.3679 -1.1048 -0.0171 -0.3778 0.6158 -0.0520 -0.4687 -1.5570 
0.8293 -0.2603 0.0952 -1.2320 0.8347 -0.4676 0.4615 -0.6849 0.2472 -0.6976 0.1095 -0.2121 0.3996 -0.0962 -0.2963 -1.1636 
0.2630 -0.0139 -0.0223 -0.3090 0.1698 -0.1426 0.1446 -0.1797 0.0971 -0.1861 -0.0280 -0.0199 0.0874 -0.0456 -0.0941 -0.3165 
0.6098 -0.0646 -0.0103 -0.9180 0.5547 -0.1817 0.3115 -0.5024 0.1822 -0.5790 -0.1621 -0.0719 0.2945 0.0068 -0.2377 -0.6682 
-1.0604 0.3038 -0.1100 1.5523 -1.0835 0.5626 -0.5621 0.9305 -0.2697 1.0160 0.0138 0.3025 -0.5517 0.1140 0.4242 1.4411 
-0.4713 0.0877 -0.0060 0.8209 -0.4176 0.2058 -0.2239 0.4354 -0.1292 0.4762 0.0142 0.0465 -0.2471 0.0713 0.1832 0.5723 
-1.1356 0.3442 -0.1286 1.6843 -1.1672 0.6241 -0.5874 0.9301 -0.3722 1.0478 -0.0277 0.3628 -0.6130 0.1108 0.4492 1.6140 
0.5518 -0.1080 0.0462 -0.9300 0.5623 -0.3407 0.3127 -0.4746 0.1426 -0.5330 -0.0292 -0.1406 0.2851 -0.0299 -0.2240 -0.8099 
-1.5802 0.3880 -0.2337 2.3545 -1.5255 0.8505 -0.8464 1.3645 -0.5103 1.5038 0.0307 0.4320 -0.7634 0.0902 0.6308 2.0914 
-0.7496 0.1750 -0.0501 1.0345 -0.6759 0.3749 -0.3868 0.6922 -0.2019 0.7089 0.0395 0.2076 -0.3350 0.0605 0.3066 0.9309 
-0.2497 0.0091 -0.0554 0.3336 -0.2105 0.0328 -0.0504 0.1283 -0.0711 0.1560 0.1031 0.0810 -0.0769 -0.0091 0.0909 0.2338 
-0.0860 0.0009 -0.0069 0.1511 -0.0463 0.0236 -0.0614 0.0296 -0.0057 0.0823 -0.0216 -0.0717 -0.0618 0.0317 0.0424 0.0470 
0.4646 -0.0528 0.0595 -0.6640 0.5215 -0.3384 0.2847 -0.3964 0.1015 -0.4873 -0.0275 -0.2068 0.2755 -0.0122 -0.2332 -0.6910 
0.0475 0.0019 -0.0075 -0.0263 -0.0805 -0.9117 -0.0286 -0.3237 0.0474 -0.8562 -0.1239 -0.0943 -0.1210 0.0356 0.0475 0.0331 
0.1138 0.0069 0.0342 -0.5165 0.0271 0.9624 -0.3661 -1.5774 0.0732 1.0033 -0.0470 0.3012 -0.2776 0.0841 -0.0282 -0.0960 
0.0939 0.0122 -0.0466 0.0375 -0.0717 -0.1607 -0.0610 -0.0193 0.0872 -0.2374 -0.0283 0.0966 -0.0787 -0.0638 0.0232 0.0532 
0.2116 0.0114 -0.0251 -0.5164 -0.0040 1.3446 -0.4517 -1.8810 0.1290 1.1693 -0.1605 0.5714 -0.4292 0.0597 -0.0517 -0.0666 
-0.0498 0.0521 0.0286 -0.1617 0.1193 -0.9007 -0.1398 -1.1232 -0.0676 -0.9110 -0.0183 -0.0519 -0.0138 -0.0719 0.0961 0.1482 
-0.0293 -0.0110 -0.0221 0.1031 -0.0035 -0.6998 0.0566 0.0999 -0.0761 -0.6106 -0.0419 -0.1435 0.0980 -0.0317 0.0798 0.0553 
0.0800 0.0086 -0.0509 0.1458 -0.1150 1.0124 0.1105 0.7361 0.1399 0.9647 -0.1080 0.4105 -0.1021 0.0165 -0.0264 -0.0454 
-0.1424 -0.0049 0.0539 0.3773 0.0821 -1.1411 0.3085 1.3678 -0.0636 -1.0561 0.1567 -0.5356 0.3010 -0.0689 0.0076 0.0004 
0.0208 0.0182 0.0083 -0.2300 0.0366 0.7970 -0.0866 -0.4026 0.0478 0.8235 0.0081 0.1293 -0.0859 0.0826 -0.0207 -0.1129 
-0.1655 -0.0257 0.0922 0.5211 -0.0100 -1.5989 0.4381 1.7015 -0.0948 -1.3835 0.1487 -0.6332 0.2746 -0.0380 0.0379 -0.0412 
-0.0441 -0.0317 -0.0300 -0.1279 0.0076 -0.4611 -0.1226 -0.8412 -0.0281 -0.3748 -0.0621 0.0198 -0.0650 -0.0502 0.0726 0.0839 
-0.1720 0.0082 0.1114 0.5346 0.0183 -2.0054 0.3781 1.8979 -0.0988 -1.8520 0.1416 -0.7542 0.3757 0.0044 0.0630 -0.0013 
-0.1041 0.0253 0.0468 0.4372 0.0719 -0.9981 0.4425 1.8924 -0.0373 -0.9520 0.1041 -0.5294 0.3045 -0.0629 0.0239 0.0022 
-0.0024 0.0019 -0.0141 -0.3109 0.0982 0.5305 -0.2583 -1.2012 -0.0820 0.3247 -0.0366 0.0965 0.0807 -0.1148 0.0315 0.1575 
0.0877 0.0336 0.0292 -0.2357 0.0564 1.1930 -0.2150 -0.5961 0.0620 1.0794 0.0037 0.2013 -0.1200 0.0825 -0.0420 -0.0731 
0.0076 0.0038 0.0540 -0.3096 0.0137 -0.8077 -0.1972 -1.0874 0.0634 -0.6637 0.0474 -0.2308 -0.1226 0.1783 -0.0678 -0.0615 
