0.0538 0.0516 -0.0183 0.0199 0.0284 -0.0221 0.0045 0.0594 0.0081 0.0799 0.0626 0.0511 0.0380 0.0119 -0.0185 -0.0519 -0.0522 0.0864 -0.0023 -0.0104 0.0047 0.0018 0.0021 -0.0513 0.0074 0.0646 0.0075 0.0247 0.0468 0.0018 -0.0966 0.0181 
0.0209 0.0154 -0.0059 0.0027 -0.0449 0.0490 -0.0224 0.0137 0.0413 -0.0388 0.0129 0.0216 0.0260 0.0384 0.0263 0.0373 0.0139 -0.0286 -0.0279 -0.0316 0.0272 0.0291 -0.0100 -0.0064 0.0150 0.0480 -0.0487 -0.0022 0.0184 -0.0109 -0.0389 -0.0124 
0.0463 0.0119 0.0381 -0.0475 0.0109 -0.0312 0.0165 0.0016 -0.0207 -0.0204 -0.0240 -0.0437 -0.0298 0.0550 0.0424 0.0313 -0.0238 -0.0238 -0.0462 -0.0496 0.0446 -0.0102 -0.0050 0.0091 -0.0155 -0.0002 -0.0435 -0.0400 0.0297 -0.0438 -0.0063 0.0332 
0.0274 -0.0179 0.0226 -0.0026 -0.0024 0.0002 0.0500 0.0088 0.0333 -0.0129 0.0187 0.0441 -0.0231 0.0324 0.0310 -0.0028 0.0316 0.0069 -0.0009 0.0428 -0.0410 0.0744 -0.0053 0.0012 -0.0136 0.0011 0.0069 -0.0115 0.0198 0.8912 -0.0064 0.0126 
-0.0224 0.0420 -0.0334 0.0246 -0.0074 -0.0313 0.0013 -0.0214 -0.0170 -0.0129 -0.0319 0.0056 -0.0363 0.0423 -0.0469 0.0514 0.0191 0.0009 0.0329 0.0396 -0.0046 -0.0197 -0.0100 0.0330 0.0425 0.0383 -0.0412 0.0089 0.0362 -0.0249 -0.0174 -0.0326 
-0.0737 -0.0141 0.0829 0.0086 -0.0018 -0.0127 0.0269 0.1221 0.0203 0.1936 -0.0566 0.0449 0.0791 -0.0048 0.0296 0.0167 0.0806 0.9123 0.0037 -0.0103 0.0369 0.0458 -0.0084 0.0754 0.0065 -0.0144 -0.0065 0.1559 0.0515 0.0000 4.5002 0.0247 
-0.0364 0.0368 -0.0017 -0.0031 -0.0175 -0.0102 -0.0226 -0.0146 -0.0256 0.0077 0.0280 -0.0278 -0.0363 0.0415 0.0403 0.0373 0.0030 -0.0036 -0.0132 0.0039 -0.0265 0.0111 -0.0155 -0.0202 -0.1013 0.0145 0.0470 0.0101 -0.0077 0.6193 0.0013 -0.0100 
0.0186 -0.0404 0.0193 -0.0414 -0.0189 -0.0094 -0.0246 0.0020 0.0392 -0.0075 0.0135 0.0320 -0.0300 0.0303 0.0391 0.0101 -0.0286 -0.0028 -0.0193 -0.0246 0.0279 0.0016 -0.0042 0.0085 -0.0864 -0.0039 -0.0077 0.0050 -0.0107 5.9999 -0.0011 -0.0363 
-0.0691 0.0443 -0.0349 -0.0094 -0.0369 0.0092 -0.0504 0.1016 0.0243 0.0690 0.0414 0.0410 0.0022 0.0022 0.0010 0.0065 0.0204 0.0652 0.0567 -0.0118 -0.0259 -0.0124 -0.0329 -0.0111 0.0087 0.0035 -0.0302 -0.1161 0.0023 -0.0043 -0.1552 0.0058 
-0.1046 -0.0086 0.0976 -0.0247 0.0308 0.0919 -0.0426 0.0953 0.0215 0.0918 0.0593 -0.0257 -0.0487 -0.0185 0.0277 0.0499 0.0678 0.8964 -0.0644 0.0371 -0.0312 -0.0159 -0.0024 0.0769 0.0055 0.0098 0.0205 -0.0716 0.0575 0.0000 4.1592 0.0177 
-0.0108 0.0355 0.0334 -0.0183 0.0358 0.0281 -0.0470 0.0063 0.0133 0.0133 0.0307 0.0348 0.0272 0.0292 0.0295 0.0159 0.0001 -0.0178 0.0158 0.0069 -0.0142 -0.0338 -0.0147 -0.0187 0.0273 -0.0251 0.0131 -0.0102 -0.0286 0.0188 -0.0139 0.0002 
-0.0125 0.0496 0.0538 -0.0173 0.0288 0.0692 0.0308 0.0030 0.0101 0.0746 -0.0328 -0.0020 0.0076 -0.0236 -0.0260 -0.0583 -0.0543 0.4272 0.0206 0.0039 0.0366 0.0588 0.0163 0.0244 -0.0097 -0.0182 0.0382 -0.0898 0.0968 -0.0003 0.6160 -0.0090 
-0.0282 0.0087 0.0079 0.0572 0.0005 0.0000 -0.0026 -0.0079 -0.0282 0.0130 0.0055 0.0291 -0.0338 0.0341 0.0423 -0.0282 0.0074 -0.0003 0.0150 0.0093 -0.0075 0.0015 -0.0344 0.0032 0.1329 -0.0136 0.0449 0.0130 -0.0147 0.2065 -0.0027 -0.0183 
-0.0370 0.0392 -0.0285 0.0171 -0.0120 0.0434 0.0342 0.0281 0.0108 -0.0080 -0.0040 0.0131 -0.0317 -0.0167 0.0274 0.0367 0.0380 0.0069 -0.0113 -0.0222 -0.0393 0.0072 0.0345 0.0707 0.0155 0.0288 0.0288 -0.0801 -0.0267 -0.0146 -0.0303 -0.0010 
0.0409 0.0124 -0.0261 -0.0194 -0.0108 -0.0342 0.0437 -0.0341 -0.0018 -0.0064 0.0130 0.0204 0.0256 -0.0054 0.0034 0.0076 0.0458 0.0353 0.0312 -0.0514 0.0047 0.0220 0.0477 -0.0146 -0.0210 0.0240 -0.0190 0.0115 0.0351 0.0212 -0.0283 0.0267 
-0.0163 -0.0175 -0.0319 0.0216 -0.0152 -0.0263 0.0202 0.0175 -0.0036 -0.0103 0.0029 -0.0276 0.0295 -0.0443 0.0307 0.0284 -0.0433 0.0083 0.0282 0.0064 -0.0239 0.0528 0.0373 0.0082 0.0215 -0.0179 -0.0290 0.0003 0.0355 -0.0263 -0.0122 -0.0259 
