0.0171 -0.0029 0.0046 -0.0588 -0.0414 0.0851 0.0599 0.0227 0.0500 -0.0821 -0.0218 0.0296 -0.0262 0.0048 0.0008 -0.0028 
0.0028 -0.0040 -0.0252 0.0700 -0.0738 0.0683 -0.0090 0.0154 -0.0755 0.0455 -0.0056 -0.0166 -0.0783 0.0077 -0.0153 0.0124 
-0.0603 -0.0110 0.0277 -0.0011 0.0823 0.0076 -0.0295 0.0217 -0.0296 0.0046 -0.0006 -0.0010 -0.0033 -0.0399 0.0466 -0.0648 
-0.0055 0.0380 0.0266 0.0176 0.0514 -0.0229 -0.0007 -0.0406 -0.0542 0.0467 -0.0403 -0.0343 -0.0005 -0.0200 0.0261 0.0036 
-0.0105 0.0045 -0.0315 -0.0623 -0.0655 -0.0116 0.0717 -0.0155 0.0630 -0.0419 0.0099 -0.0042 -0.0251 0.0101 -0.0055 0.0193 
0.0061 -0.0018 -0.0042 0.0046 0.0951 0.0393 0.0287 0.0049 0.0345 0.0166 0.0035 -0.0021 0.0368 0.0046 0.0144 -0.0192 
-0.0380 0.0289 -0.0306 -0.0029 -0.0329 0.0483 0.0204 -0.0402 -0.0168 -0.0089 0.0078 0.0127 -0.0407 0.0476 -0.0124 0.0318 
-0.0088 0.0012 -0.0103 0.0453 0.3141 0.0191 0.0311 -0.0011 -0.0160 -0.1018 0.0018 -0.0018 0.0422 0.0002 -0.0115 -0.0168 
-0.0152 -0.0032 0.0069 0.0067 -0.0213 -0.0240 0.0516 0.0142 0.0245 -0.0359 -0.0101 0.0140 -0.0272 0.0127 0.0023 0.0053 
-0.0008 0.0011 -0.0022 -0.0323 0.1466 0.0298 0.2041 0.0103 -0.0206 -0.0803 -0.0036 -0.0016 0.0381 -0.0064 -0.0074 -0.0133 
0.0122 0.0251 0.0161 -0.0561 -0.0517 -0.0043 0.0355 0.0267 0.0356 -0.0637 0.0125 -0.0340 0.0373 -0.0202 0.0083 -0.0216 
0.0485 -0.0384 -0.0085 0.0064 -0.0577 -0.0451 -0.0029 -0.0248 -0.0088 -0.0008 -0.0110 -0.0199 0.0239 0.0132 -0.0038 -0.0112 
-0.0007 -0.0073 -0.0020 0.0225 0.0666 -0.0429 -0.0008 -0.0025 -0.0318 -0.0904 0.0004 -0.0126 -0.0248 -0.0170 -0.0113 -0.0097 
-0.0163 0.0049 0.0063 -0.0636 0.1302 -0.0637 -0.0144 -0.0125 0.0722 0.1787 -0.0025 0.0059 -0.0232 0.0061 0.0081 0.0267 
-0.0280 -0.0029 0.0047 0.0396 0.0295 -0.0699 -0.0418 0.0313 -0.0373 0.0383 -0.0322 0.0072 0.0608 -0.0118 0.0266 -0.0323 
0.0450 0.0324 -0.0232 0.0256 -0.0286 0.0206 0.0434 -0.0357 0.0015 -0.0182 0.0198 0.0427 -0.0292 0.0196 0.0390 -0.0162 
-0.0264 -0.0001 -0.0301 0.0430 0.0184 -0.0214 0.0749 0.0217 -0.0535 0.0627 -0.0040 0.0176 -0.0458 -0.0094 0.0343 -0.0303 
-0.0009 -0.0003 0.0017 -0.0027 2.3008 0.0044 0.2330 -0.0003 -0.0138 -0.2582 -0.0001 -0.0001 0.0192 -0.0007 0.0006 -0.0014 
0.0354 0.0238 0.0457 -0.0105 -0.0481 0.0342 -0.0282 -0.0432 0.0140 0.0126 -0.0530 0.0341 0.0518 0.0436 0.0396 -0.0351 
-0.0331 0.0261 0.0149 -0.0377 0.0061 -0.0285 0.0034 0.0149 -0.0007 0.0464 0.0438 -0.0016 -0.0260 0.0105 0.0138 -0.0486 
-0.0146 0.0089 -0.0058 -0.0107 -0.0074 0.0147 0.0003 -0.0341 -0.0269 0.0017 0.0301 -0.0198 -0.0012 0.0279 -0.0069 0.0182 
0.0209 -0.0304 0.0344 -0.0209 -0.0348 -0.0139 0.0396 0.0378 -0.0154 0.0343 -0.0229 -0.0010 -0.0088 0.0427 0.0047 0.0394 
0.0033 0.0423 -0.0342 0.0432 0.0124 0.0149 -0.0430 0.0379 -0.0302 0.0570 -0.0422 0.0154 0.0343 -0.0006 -0.0163 -0.0053 
0.0052 -0.0070 0.0106 0.0335 -0.0285 -0.0033 0.0486 0.0125 -0.0219 0.0872 -0.0095 0.0030 0.0261 0.0145 -0.0094 -0.0196 
0.0100 0.0012 -0.0133 -0.0381 -0.0544 -0.0241 -0.0637 -0.0094 -0.0272 -0.0469 0.0258 -0.0173 0.0359 -0.0117 0.0078 -0.0129 
-0.0057 -0.0150 -0.0279 0.0518 0.0338 0.0305 0.0075 0.0319 0.0133 0.0325 0.0075 -0.0095 -0.0073 0.0350 0.0101 -0.0260 
0.0014 0.0355 -0.0067 0.0180 -0.0276 0.0076 -0.0567 0.0114 0.0292 0.0516 0.0271 0.0003 -0.0240 -0.0063 0.0272 0.0188 
0.0135 0.0201 0.0020 -0.0106 0.0231 -0.0809 -0.0160 -0.0173 0.0493 -0.0986 0.0032 -0.0150 -0.0964 -0.0144 -0.0046 0.0018 
-0.0372 0.0070 -0.0211 -0.0121 -0.0418 -0.0259 0.1775 -0.0211 -0.0258 0.0696 0.0069 -0.0016 -0.0307 -0.0011 -0.0266 0.0419 
-0.0120 0.0011 -0.0000 0.0084 2.0074 2.1281 -0.0301 0.0018 0.0034 3.7731 0.0204 0.0288 5.3031 -0.0001 -0.0001 -0.1213 
-0.0000 0.0000 -0.0000 -0.0015 10.4109 -0.0011 5.2707 0.0000 -0.0176 -1.4673 -0.0000 -0.0000 0.0171 -0.0000 -0.0000 -0.0000 
-0.0183 0.0034 -0.0131 0.0728 -0.0347 -0.0139 -0.0206 -0.0127 -0.0619 -0.0601 0.0137 -0.0098 0.0049 -0.0085 -0.0179 0.0057 
