2.6251 1.1435 1.6230 0.5046 0.9157 -0.2350 1.3958 1.8004 -0.6736 1.6393 1.2860 0.2415 0.6555 -1.9187 -1.7979 3.4189 
-0.0712 -0.0247 -0.0122 -0.0278 0.0305 -0.0973 0.0103 0.0184 0.0302 -0.1522 0.1038 -0.0350 -0.0051 0.0197 -0.0897 -0.0328 
-0.2318 -0.0426 -0.0793 -0.1064 -0.0699 -0.0302 -0.1317 -0.1135 0.0877 -0.1895 -0.0285 -0.0804 -0.0859 0.1412 0.0481 -0.1954 
0.3598 0.4220 0.3054 0.1388 0.3243 -0.3511 0.3327 0.3900 -0.0498 -0.0388 0.5400 0.0691 0.1867 -0.3334 -0.6757 0.6671 
1.9154 0.6937 1.0528 0.2941 0.5516 0.0009 0.9656 1.2522 -0.4260 1.2564 0.6312 0.1745 0.3995 -1.3918 -1.1494 2.3633 
-1.2603 -0.6945 -0.8131 -0.1844 -0.5149 0.2953 -0.6548 -0.9614 0.2459 -0.6390 -0.7650 -0.0433 -0.3578 0.9965 1.1045 -1.7871 
-0.2429 -0.2408 -0.3093 -0.0449 -0.2981 0.2413 -0.1131 -0.4090 -0.0545 0.1024 -0.5552 0.1108 0.0116 0.2378 0.5079 -0.3829 
-1.4641 -0.7950 -1.0097 -0.3174 -0.6805 0.2612 -0.7678 -1.1764 0.3680 -0.7303 -0.9915 -0.0708 -0.3530 1.0859 1.2447 -1.9356 
-0.0049 -0.0953 -0.1343 0.0632 -0.1447 0.2215 0.0001 -0.2438 -0.0997 0.1704 -0.3439 0.1412 0.0777 0.0742 0.2681 -0.0911 
-0.8843 -0.7131 -0.8135 -0.1807 -0.6545 0.6138 -0.4839 -0.9802 0.0531 -0.0746 -1.1883 0.1751 -0.1729 0.6770 1.2521 -1.2123 
1.7587 0.4551 0.9504 0.3220 0.4429 0.1450 0.8341 1.0759 -0.5061 1.2432 0.4207 0.2577 0.4408 -1.2924 -0.8198 2.1042 
1.5863 0.7891 1.1549 0.3239 0.7741 -0.3219 0.7675 1.3699 -0.2889 0.7573 1.1283 0.0736 0.3502 -1.2505 -1.3604 2.1017 
0.1707 0.0852 0.1528 -0.0190 0.1205 -0.0648 0.0631 0.1683 -0.0744 0.1089 0.1514 -0.0357 -0.0109 -0.1983 -0.1501 0.2331 
-0.5581 -0.0293 -0.2598 -0.1668 -0.0703 -0.2321 -0.2509 -0.2376 0.2137 -0.6431 0.0203 -0.1848 -0.1363 0.3940 0.0329 -0.6506 
-0.7111 -0.1575 -0.3149 -0.1593 -0.0993 -0.2056 -0.2648 -0.2820 0.1966 -0.6608 0.0787 -0.1611 -0.1466 0.4814 0.1506 -0.7855 
0.9957 0.3128 0.6453 0.0785 0.3549 -0.0582 0.4425 0.6632 -0.1954 0.5741 0.4102 0.0196 0.1655 -0.7115 -0.6481 1.2162 
1.7804 0.8709 1.2035 0.3209 0.6763 -0.3118 0.9556 1.3314 -0.4156 0.9393 1.1015 0.1133 0.4446 -1.2558 -1.4479 2.2732 
-0.7055 -0.2156 -0.2955 -0.0987 -0.1223 -0.0993 -0.3721 -0.3543 0.3065 -0.6355 -0.0490 -0.2115 -0.2094 0.5026 0.2659 -0.9404 
0.0618 0.1411 0.0808 -0.0485 0.0144 0.0108 0.0544 0.0877 -0.0739 0.0637 -0.0123 -0.0146 0.0209 -0.1219 -0.1039 0.1949 
0.5046 0.6348 0.5070 0.2087 0.5138 -0.5459 0.4290 0.6778 -0.1327 -0.0715 0.9026 0.0241 0.2205 -0.5154 -1.0014 1.0175 
1.7149 0.5999 1.0003 0.2282 0.5211 -0.0415 0.8410 1.0476 -0.3606 1.0528 0.5912 0.1001 0.3314 -1.2027 -0.9328 2.0700 
-0.9364 -0.6377 -0.7061 -0.1350 -0.5268 0.3940 -0.5057 -0.8026 0.0921 -0.2820 -0.8344 0.1027 -0.2236 0.6985 1.0421 -1.2943 
0.2655 0.0112 0.1235 0.1426 0.0053 0.1097 0.1377 0.0319 -0.1036 0.3560 -0.0634 0.0546 0.1179 -0.1618 -0.0092 0.3204 
-1.2385 -0.8434 -0.8854 -0.2524 -0.6792 0.3784 -0.7481 -1.0923 0.2427 -0.5150 -1.0345 -0.0698 -0.3622 1.0285 1.3128 -1.8093 
0.2509 0.0815 0.0176 0.0999 -0.0254 0.0826 0.1608 -0.0369 -0.1660 0.2698 -0.1468 0.0903 0.1697 -0.1502 0.0139 0.2489 
-0.7673 -0.5520 -0.6490 -0.0706 -0.4446 0.5282 -0.4458 -0.7730 0.0891 -0.0385 -0.9228 0.1743 -0.2259 0.6016 1.0907 -1.0708 
1.6173 0.5201 0.9342 0.3317 0.5096 0.0444 0.7748 1.0942 -0.4688 1.0998 0.5599 0.1909 0.3734 -1.2334 -0.9182 1.9478 
0.9201 0.4685 0.7298 0.1600 0.4403 -0.3731 0.4464 0.8061 -0.1522 0.3303 0.7303 -0.0451 0.2175 -0.7088 -0.8869 1.1204 
0.2620 0.2335 0.2437 0.0618 0.2664 -0.1974 0.1484 0.3954 -0.1177 0.0597 0.4063 -0.0519 0.0742 -0.1971 -0.3056 0.3761 
-0.4243 0.0975 -0.0755 -0.1110 0.1264 -0.3672 -0.1938 -0.0833 0.2575 -0.6054 0.3308 -0.2470 -0.1429 0.2939 -0.1297 -0.4833 
-0.4156 -0.0461 -0.1012 -0.0969 0.0894 -0.2800 -0.1638 -0.0467 0.1601 -0.5653 0.2965 -0.1578 -0.1429 0.2556 -0.1023 -0.4865 
0.8104 0.2874 0.5157 0.0317 0.2900 -0.1117 0.3114 0.6088 -0.1124 0.4298 0.3272 0.0107 0.1517 -0.6292 -0.5217 0.9279 
-0.0088 -0.0462 0.3477 0.2645 0.1820 -0.5671 0.2954 -0.5032 0.0974 0.0613 1.3867 0.0624 0.1285 -0.0337 -1.3702 -0.2047 
-0.0117 0.1027 -2.0406 0.1018 -0.0440 -1.5242 -0.1363 0.1568 -0.0063 0.0389 -0.4401 -0.0495 -0.0670 -0.0861 -0.6588 -0.5530 
0.1632 -0.1495 0.8337 -0.0553 0.0811 0.5890 0.2057 -0.1472 0.0606 0.0620 0.0600 0.1133 0.3179 0.1065 -0.2655 1.2895 
0.0595 -0.0631 1.9866 0.2061 0.1758 0.9506 0.2804 -0.3140 0.0767 0.0750 1.3575 0.0090 0.0673 0.0442 -1.8785 -0.1211 
-0.0976 -0.1249 1.9767 0.0456 0.0058 0.6834 0.0299 -0.2767 0.0403 0.0070 0.8339 -0.2015 -0.3915 0.0007 0.1102 -0.9840 
-0.0639 0.2049 0.4565 -0.0418 -0.1564 -0.0426 -0.3333 0.1630 -0.1986 -0.0295 -0.0025 -0.1257 -0.2500 -0.1774 0.7657 -1.4955 
-0.0443 -0.0714 -0.0135 0.1006 0.0684 -0.3433 0.2800 -0.1764 0.0228 -0.1682 0.3749 0.0729 0.1940 -0.0844 0.2480 0.4006 
0.0518 0.0035 -2.3402 -0.2407 -0.0595 -0.7393 -0.0357 0.2142 -0.0778 -0.1866 -1.4653 0.2485 0.3877 -0.0563 1.4911 1.4483 
-0.1395 0.1909 0.9113 0.2808 -0.1490 -0.4447 -0.0016 -0.1368 -0.0762 0.0636 0.7195 -0.1103 -0.0984 -0.1382 0.0220 -1.4024 
-0.1984 -0.0878 -2.3462 -0.0355 -0.2036 -1.1824 -0.2431 -0.0004 -0.0947 -0.2864 -0.7192 -0.1360 -0.2320 -0.1768 0.6028 -0.9962 
-0.2155 -0.1751 1.0189 -0.3583 0.0239 0.9508 -0.2277 -0.0155 -0.1608 -0.3536 0.1695 0.0808 -0.3250 -0.1607 1.2152 -0.2751 
-0.0357 0.0224 0.1506 -0.0234 -0.0536 0.5958 -0.1818 0.1179 -0.0874 0.0701 -0.3291 -0.1879 -0.2174 0.1376 -0.2908 -0.5313 
-0.0495 -0.0406 0.3833 -0.0035 -0.0115 0.3040 0.0183 0.0985 0.0446 -0.0310 0.0710 -0.0053 -0.0981 -0.0445 0.1954 -0.1151 
0.2224 -0.0182 -1.9587 0.1887 0.1127 -1.2838 0.3459 -0.0502 0.1044 0.1082 -0.2761 0.1770 0.4712 0.0457 -1.1025 1.4712 
0.0513 0.0516 -0.2165 0.2213 0.1411 -0.7072 0.3513 0.0260 0.1426 0.1661 0.6056 0.1532 0.2381 -0.0096 -0.5881 0.5432 
0.0883 -0.2437 -0.7734 -0.1148 0.0228 -0.0677 0.1340 -0.2092 0.0185 -0.1018 -0.3861 0.1406 0.2689 0.0417 0.1142 1.2535 
