0.0370 -0.0125 0.0245 -0.0101 0.0224 -0.0117 0.0349 0.0316 -0.0261 0.0848 -0.0255 0.0232 0.0029 -0.0559 -0.0299 -0.0268 -0.0206 -0.0341 -0.0236 0.0109 0.0349 -0.0213 0.0426 -0.0112 0.0772 -0.1186 -0.0282 -0.0249 -0.0271 -0.0003 -0.0087 -0.0328 
0.0120 -0.0068 -0.0314 -0.0413 -0.0018 -0.0200 -0.0098 0.0245 -0.0742 -0.0141 -0.0001 0.0060 0.0018 0.0125 0.0046 0.0589 0.0343 0.0296 -0.0157 0.0291 -0.0616 -0.0118 -0.0578 0.0406 -0.0232 -0.0246 -0.0327 0.0370 0.0353 0.0062 0.0335 -0.0104 
0.0138 5.4345 0.0056 -0.0000 0.0329 0.0469 0.5279 -0.0334 0.0203 -0.0027 0.0177 0.0000 -0.0106 -0.0101 -2.2349 0.0001 0.0670 0.5217 0.0237 -0.0979 0.0230 0.2985 0.0228 -0.0073 0.0054 -0.0009 0.0288 0.0023 0.0046 0.0078 -0.0007 -0.0530 
0.0048 0.0112 -0.0022 0.0002 -0.0157 -0.0164 0.0041 -0.0169 0.0335 -0.0289 0.0366 0.0180 -0.0309 -0.0245 0.0878 -0.0179 0.0318 -0.0112 -0.0295 0.0304 -0.0286 -0.0340 0.0500 -0.0182 -0.0139 0.0238 0.0444 0.0399 -0.0005 0.0572 -0.0109 -0.0409 
0.0197 0.0087 0.0055 0.0040 0.0674 -0.0354 -0.0248 0.0152 -0.0448 -0.0562 -0.0058 -0.0066 -0.0161 -0.0401 0.0074 -0.0102 0.0141 0.0508 0.0301 0.0449 0.0209 0.0416 0.0465 0.0155 0.0301 0.0463 0.0213 -0.0491 0.0459 0.0302 -0.0107 0.0040 
-0.0055 1.7279 0.0028 -0.0099 0.0365 0.1018 0.3847 0.0531 0.0029 -0.0042 -0.0577 -0.0014 0.0084 0.0148 -0.2683 -0.0004 0.0076 -1.3868 -0.0475 -0.0398 0.0150 0.3695 -0.0118 -0.0122 0.0033 -0.0039 0.0012 0.0018 0.0085 0.0061 -0.0110 -0.0573 
-0.0231 0.0227 -0.0023 -0.0001 0.0076 -0.0074 -0.0275 -0.0009 0.0701 0.0026 0.0327 -0.0036 -0.0043 0.0614 0.0504 -0.0031 0.0593 0.0596 -0.0083 0.0750 0.0087 0.0246 -0.0298 -0.0004 0.0927 0.0462 -0.0341 0.0040 -0.0182 -0.0109 0.0013 0.0198 
-0.0403 -0.0027 0.0411 0.0983 0.0017 0.0209 -0.0048 -0.0176 0.0003 0.0745 0.0274 0.0720 0.0443 -0.0185 0.0065 0.1068 -0.0335 -0.0066 0.0132 0.0174 -0.0651 0.0165 -0.0524 0.0361 0.0205 -0.0552 -0.0232 0.1617 0.0293 -0.0687 0.0547 0.0250 
-0.0392 0.0036 0.0026 0.0010 0.0067 0.0217 -0.0685 -0.0476 0.0161 0.0543 0.0688 -0.0029 -0.0222 0.0545 -0.0510 -0.0069 -0.0231 0.1034 0.0291 -0.0327 0.0217 0.0564 -0.0360 -0.0037 -0.0772 -0.0073 -0.0190 0.0432 -0.0028 -0.0523 0.0041 0.0222 
0.0077 -0.0080 -0.0081 -0.0047 0.0697 -0.0052 -0.0354 0.0055 -0.0296 -0.0599 -0.0675 -0.0101 -0.0416 -0.0246 0.0070 -0.0121 -0.0247 -0.0299 0.0134 0.0841 -0.0270 0.0249 -0.0195 -0.0050 -0.0409 0.0238 -0.0345 0.0585 0.0213 0.0461 -0.0067 -0.0309 
-0.0484 1.5440 -0.0027 0.0000 -0.0399 -0.0108 0.0563 -0.0092 0.0062 0.0012 0.0292 0.0011 0.0225 -0.0052 1.7101 -0.0015 0.0164 -0.0098 -0.0452 0.0216 -0.0077 -0.0281 -0.0242 -0.0003 -0.0035 -0.0002 -0.0276 0.0082 -0.0063 0.0043 0.0008 -0.0105 
-0.0307 -0.0070 -0.0059 -0.0087 0.0125 -0.0231 0.0051 -0.0221 0.0257 -0.0049 0.0291 -0.0018 0.0182 0.0304 0.0026 -0.0183 -0.0365 0.0062 -0.0302 -0.0079 0.0541 -0.0039 0.0436 0.0313 0.2334 -0.1181 0.0103 -0.0510 0.0264 0.0010 0.0102 0.0264 
0.0381 -0.0030 -0.0127 -0.0008 -0.0331 -0.0134 0.0018 0.0145 0.0099 -0.0038 -0.0357 -0.0258 -0.0244 0.0499 0.0057 -0.0138 -0.0189 0.0402 0.0224 -0.0401 -0.0307 0.0039 -0.0348 -0.0141 0.2653 0.1803 -0.0143 -0.0334 -0.0452 0.0627 -0.0086 -0.0150 
0.0444 0.0074 -0.0032 -0.0227 0.0297 -0.0452 0.0627 -0.0354 0.0094 0.0645 -0.0084 0.0279 0.0136 -0.0552 -0.0343 0.0294 0.0376 0.0347 -0.0256 -0.0465 -0.0049 -0.0121 -0.0193 -0.0231 -0.0293 0.0237 -0.0009 0.0043 0.0074 0.0223 0.0088 0.0083 
-0.0154 -0.0021 0.0286 2.8454 -0.0055 -0.0066 -0.0069 0.0677 -0.0111 0.0003 0.0105 0.1125 0.0137 0.0304 -0.0012 -0.0337 0.0030 -0.0057 0.0126 0.0403 0.0226 0.0190 -0.0466 0.0833 0.0096 0.0170 -0.0152 -0.0790 -0.0183 0.0588 0.3232 0.0193 
-0.0663 -0.0002 0.0126 -0.0010 0.1018 0.0060 -0.0070 -0.0335 -0.1006 0.3759 -0.0685 0.0337 -0.0019 0.2992 0.0008 -0.0140 -0.0405 0.0371 0.0484 0.0705 0.0271 -0.0233 0.0082 -0.0015 3.5882 2.7316 0.0035 -0.0729 0.1687 -0.0280 0.0096 -0.0184 
