0.4017 0.4928 0.4199 -2.1991 -0.6519 0.4014 1.8818 0.7189 0.6693 -0.4487 -1.4734 -0.1995 -0.4926 -0.0919 -0.9838 -0.3601 
-0.6483 0.2509 -0.2379 0.3570 0.1756 0.0410 0.1880 -0.4856 -0.4294 -0.1744 0.2485 0.1069 0.2503 -0.5674 0.0796 -0.5653 
0.7310 0.0270 -0.6467 0.2482 0.0653 -0.3631 -1.2933 0.4123 0.3283 -0.2191 -1.1276 0.1886 -0.6295 0.0320 0.1976 0.9631 
-0.4454 -0.2392 -0.2535 -0.1913 0.1994 0.4166 1.4140 -0.5760 -0.4624 0.4163 0.2199 -0.3383 0.1908 -0.5748 -0.3974 -0.8960 
0.9014 -0.4822 0.2503 -0.1946 1.1521 0.1509 0.5906 -1.1892 -0.7042 0.6516 0.1896 -0.2388 -0.8092 -0.7261 -0.0824 0.0946 
0.3387 -0.1012 -0.4088 0.7722 -0.0304 -0.3414 -1.1560 0.3292 -0.0752 0.6400 0.5631 -0.2799 -0.4014 0.8131 0.7458 1.4005 
0.9843 -0.2027 0.2615 -0.0461 0.9721 -0.4490 -0.0466 -0.8087 -0.3349 -0.2565 -0.6584 0.0650 -0.8592 -1.0009 -0.3747 0.1000 
-0.2387 -0.4785 0.4588 0.0271 -0.2758 0.1144 -0.3141 0.5224 0.4522 -0.5057 -0.1937 -0.0152 0.6529 -0.6981 -0.8632 -1.7659 
-0.4752 0.1789 0.6948 -0.8120 -0.9296 0.4329 0.2598 1.0646 0.9388 -0.2690 0.4277 0.0741 0.7433 0.8486 -0.2088 -0.6898 
-0.2344 0.2308 0.1473 -0.8802 -0.5973 -0.0244 1.0035 0.2340 -0.2454 0.1516 0.0419 -0.6513 -0.1994 -0.1826 -0.2518 -0.3811 
0.0368 0.1364 0.2225 -0.3570 -0.4894 0.5310 -0.0025 0.8657 0.9319 -0.3641 -0.1933 0.7167 0.3777 0.9249 0.1548 0.6024 
0.6255 -0.1635 0.0085 -0.4939 0.2124 0.0280 1.1552 -0.0605 -0.1581 0.1413 0.1955 -0.2649 0.0031 0.1748 -0.4219 -0.1114 
-0.4354 0.0503 0.1877 0.4886 -0.1050 0.0829 -0.8016 0.3406 0.4872 -0.1438 0.2922 0.4056 0.4450 0.6212 0.2419 -0.0168 
-0.8750 -0.1446 -0.7882 1.2885 -0.4351 0.2861 -0.8156 0.5428 0.1610 0.5769 0.7556 -0.1198 0.5858 0.7158 0.5485 0.3972 
-1.5054 0.2957 -0.1742 2.5691 0.6606 -0.9394 -3.2339 -0.6739 -0.1712 -0.7213 0.1011 0.8259 0.5750 -0.9810 0.8501 -0.0263 
-0.0090 -0.0098 0.3884 -0.5622 -1.0233 -0.1258 -0.2668 1.4091 0.9461 -0.4177 -0.0559 -0.2701 0.3746 0.6139 -0.4691 -0.3379 
2.0041 -2.4103 0.2444 -1.8036 0.0059 0.1906 3.9792 -0.0065 -0.5499 1.4822 0.0924 -1.6163 1.0076 -1.4100 -1.9023 -2.0550 
0.7299 -1.0234 -0.0009 -0.4271 -1.1235 0.9786 1.4394 1.8365 1.5425 0.9041 0.5286 -0.0809 0.3673 1.4096 -0.3079 1.0680 
1.2639 -1.9479 -0.0626 0.6518 1.3168 -0.9473 0.6776 -0.8772 -1.3415 1.5525 -0.2460 -1.3994 0.5075 -2.3432 -0.6431 -1.5402 
0.6771 -0.4786 0.1045 -2.0291 -1.7072 1.4936 3.4093 2.5338 2.1835 0.6581 0.4558 -0.0980 0.2692 2.1255 -0.8724 0.9924 
-1.8441 0.8071 -1.4827 0.2112 -0.9524 1.2283 -0.4330 1.6395 0.6063 -0.5249 1.1267 0.9007 1.1150 1.3487 1.8027 1.7539 
-1.8366 1.8590 0.5906 1.8651 1.1209 -1.2826 -4.1723 -1.2943 -0.0964 -0.4909 -1.3911 0.5606 -0.9337 -0.3903 0.5317 0.3579 
-0.2135 -0.7542 -1.5293 -0.5081 -1.2658 1.2460 1.5222 1.3807 -0.0970 -0.2273 1.8428 0.4773 2.1065 0.6390 1.2344 1.1621 
0.8276 -0.3344 -0.0177 -0.1273 -1.9946 1.3762 -0.2456 0.6318 0.3103 -1.5221 1.9558 1.3466 0.6164 1.5089 1.3205 1.0380 
-0.6701 1.1596 1.2314 -0.1132 -0.6206 0.1841 -2.0749 -1.1601 -0.4161 -1.7282 -0.0777 1.1718 -0.8527 -0.1900 0.4593 -1.2538 
0.1494 -0.2800 0.6073 -0.8450 -1.5062 0.8351 0.4017 1.8430 2.3627 0.4513 -0.4596 0.0673 0.0752 1.8645 -0.9374 0.5831 
0.4306 -0.0506 0.4154 0.6441 2.7520 -1.8060 -0.5184 -3.1894 -3.2355 0.1328 -1.1131 -1.2015 -1.0066 -3.7868 -0.6658 -2.7962 
-1.2974 1.4120 -0.1122 0.4698 0.3335 -0.2829 -1.5621 -0.9008 -0.7097 -0.9124 -0.1449 0.6912 -0.1598 -0.2174 0.9748 0.4341 
-0.7663 1.1636 0.5773 0.7309 0.8937 -0.7450 -1.7152 -1.9856 -1.3891 -1.1000 -0.0699 0.5693 -0.7862 -0.8906 0.6183 -0.8534 
0.0332 0.5688 1.1646 1.0080 1.1333 -1.0663 -1.6449 -0.6643 0.4933 0.6551 -1.3642 -0.3340 -1.6952 -0.1426 -0.8390 -0.1184 
1.3725 -1.6221 -0.3531 0.1702 -1.9315 1.3319 0.9762 2.0338 1.4637 0.0306 2.0979 0.6623 1.2198 2.0389 0.6747 1.5698 
0.1551 0.3742 1.1476 -0.1990 -1.0622 0.1766 -1.6242 -0.8116 -0.0905 -1.5677 0.2974 1.1472 -0.0544 0.2908 0.2422 -0.7877 
3.1050 -1.6719 -3.6371 0.9677 2.8118 -2.1775 -0.6686 -0.2487 2.4435 -1.2648 -1.9473 1.5994 0.9407 -0.6405 0.0788 0.0597 
1.6254 0.5061 0.2502 0.8554 -1.1100 0.4311 -1.1443 0.6005 -1.3349 1.8741 0.4670 -0.3928 0.1540 0.0642 0.6124 0.5570 
1.0059 1.0764 4.5424 -2.3392 -2.2609 0.8992 -0.5785 -1.3277 -0.6825 2.5241 1.7491 -1.6744 0.8958 0.6932 1.3753 -1.0606 
-1.1122 0.5452 -0.3534 0.9604 -0.8440 0.3545 -1.2810 1.0830 -1.6139 1.3452 0.7870 -0.4456 -0.3825 0.4005 -0.0593 1.1072 
2.2288 0.0207 1.4327 -0.4534 -1.4114 1.0752 0.8525 0.2470 -1.5246 2.8526 2.7757 -1.5287 -0.4239 0.1245 1.0040 1.2385 
0.8754 -1.0686 -1.4434 0.1245 1.4048 -1.0272 0.8494 -1.0888 1.7339 -1.7908 -1.6328 1.4687 -0.4744 -0.4827 -0.7767 -0.7876 
-1.8128 -1.4165 -6.2014 1.2127 2.7931 -3.3716 0.8374 -0.8315 2.4511 -1.5122 -1.9455 3.0060 -1.1278 -2.3365 -1.6770 -0.0782 
-2.2982 -0.7409 -5.1787 1.9231 2.4935 -2.1441 0.2025 0.8794 1.9473 -2.9549 -2.8816 2.6995 -0.7982 -1.5332 -1.8614 0.3425 
0.3477 -2.1328 -1.1283 0.0670 2.1035 -0.2427 0.5817 0.9143 1.5110 -2.6270 -1.0768 0.9484 -0.1292 0.4560 -0.7632 0.1567 
0.9404 -0.6259 -0.5021 0.7648 -0.6680 0.5641 -1.6391 0.5350 -0.6966 0.0902 -0.2865 -0.0992 0.2269 0.5349 -0.3556 0.6981 
2.1266 2.0023 8.0124 -3.3280 -2.8770 3.2856 1.1136 -0.5193 -2.3052 2.2704 3.2983 -3.7391 1.8039 1.8182 2.7898 -0.9505 
0.9357 0.8140 2.6965 -1.3908 -1.0561 0.9920 0.7364 -0.5149 -0.2260 0.8272 0.8869 -0.8495 -0.1467 0.5936 0.6616 0.0456 
1.5729 1.3150 5.1139 -2.1134 -1.9431 2.2508 0.3065 0.0168 -0.6712 1.2617 1.5288 -1.8099 0.3296 1.5460 1.3700 0.1978 
2.8895 1.4785 4.2294 -0.4271 -1.9809 1.8754 -0.7610 0.0913 -1.0889 2.0165 0.8809 -1.4734 0.4558 1.6630 1.3333 -0.0991 
-0.6894 0.0740 -1.9077 1.7479 -0.3982 -0.3878 -1.1952 1.0623 -0.8565 0.5905 -0.5725 0.6738 0.0346 -0.7991 -0.4818 0.6782 
-2.1803 -1.4187 -1.9444 0.2198 1.3883 -0.8508 -0.4783 0.0075 2.2226 -2.8964 -2.2699 1.8870 -0.4117 -0.0977 -2.0512 -0.1391 
