0.0030 -0.3760 0.1308 -20.5199 4.4559 0.0338 0.0007 0.1123 0.0155 -24.5765 1.4405 -2.3505 -21.7143 15.9258 -0.1826 0.0397 
-0.0000 -21.8842 -12.2463 0.0000 -40.9656 0.0000 -0.0000 0.0000 -0.0000 0.0000 -0.4415 -16.9985 0.0000 0.0000 0.1327 -0.0000 
0.0000 0.0001 0.0002 0.0000 0.0493 0.0000 0.0000 0.0000 -0.0000 -10.5154 0.0001 -0.3633 -10.5301 -0.0028 -0.0002 -0.0000 
0.0434 -0.0075 -0.0080 -0.0058 -0.0211 0.0002 -0.0437 0.0005 0.0033 -0.0032 0.0474 -0.0409 -0.0937 0.0194 -0.1047 0.0002 
-0.0053 -0.0001 0.0021 -0.0007 -0.1515 -0.0006 0.0102 0.0002 0.0230 0.0107 0.0022 0.2679 -0.0011 -0.0029 0.0929 -0.0006 
0.0000 0.0014 -0.0014 0.0001 -0.6483 -0.0000 0.0001 -0.0000 0.0000 -0.0227 -0.0069 0.0964 0.0047 0.0018 -0.0079 0.0000 
0.0008 2.3228 2.1866 0.1120 -0.0002 0.0006 -0.0374 -0.0001 0.0000 -23.5671 -5.3096 -0.0002 -22.2003 -5.2995 0.3099 -0.0002 
-0.0003 -0.0004 0.0002 -0.0013 -0.0899 0.0000 0.0006 0.0000 0.0000 -0.1130 -0.0085 0.0979 -0.0260 -0.0075 0.0079 0.0001 
-51.2357 65.1389 39.6079 -83.2237 -70.0218 21.6056 61.6976 35.7761 45.2206 0.3152 57.4273 0.0008 -0.3917 -82.8814 -68.3832 -39.3343 
0.0000 0.0031 -0.0104 -0.0002 -0.0874 -0.0000 -0.0000 -0.0000 0.0000 -0.1121 0.0001 0.3770 -0.0631 -0.0047 0.0031 -0.0000 
-0.3265 -0.0278 0.0733 -0.0000 -3.3097 0.0327 0.1599 -0.1163 0.1351 0.0000 0.5044 -0.0303 0.0000 0.0000 6.7220 0.0244 
-0.0000 -0.0000 -0.0001 0.0000 0.0000 0.0000 0.0000 -0.0000 0.0000 5.7761 0.0002 -0.0001 -5.3956 0.0036 0.0000 0.0000 
-21.1497 0.0004 -0.0086 -0.8076 0.0180 0.0011 -19.5623 -0.0743 0.3638 -0.0002 -9.8408 -0.0001 -0.0060 -6.0539 -8.6949 0.0025 
-0.0170 0.0030 0.0040 -0.0006 -0.0118 -0.0017 0.0152 -0.0045 -0.0209 0.0068 -0.0022 -0.1285 -0.0056 -0.0029 0.0050 -0.0102 
-26.6367 -0.1728 14.9054 -31.3792 0.0004 -0.0015 15.8771 -0.0238 0.0008 -22.3026 -54.1981 -0.0000 17.6201 -64.7643 51.9343 0.0006 
-0.0000 0.0003 -0.0007 0.0000 -0.0130 0.0000 0.0001 -0.0000 0.0000 4.5479 0.0062 -0.0036 -4.2658 -0.1119 -0.0004 -0.0000 
-0.0059 0.0584 -0.0246 0.0085 -0.0534 0.0080 0.0077 -0.0073 -0.0133 0.0462 -0.0765 0.0385 0.0819 -0.0805 0.0103 0.0145 
-4.3786 -0.0173 0.0088 -16.5341 -0.0000 0.0000 2.5965 0.0000 0.0000 -116.1958 -27.6482 0.0000 -76.6578 43.4133 10.6497 -0.0000 
0.0000 -0.0000 -0.0000 -0.0000 -11.5149 0.0000 0.0000 0.0000 -0.0000 -0.0007 0.0000 -44.6500 0.0002 -0.0000 0.0000 0.0000 
-0.0000 -0.0003 0.0019 -0.0008 -0.0121 -0.0001 0.0017 -0.0000 -0.0001 -0.0537 0.0009 0.2245 -0.1888 0.0050 0.0050 0.0001 
0.0002 0.0007 -0.0016 0.0000 0.0104 0.0000 -0.0002 -0.0000 -0.0000 -0.0146 -0.0068 -0.0001 -0.0387 0.0019 -0.0115 -0.0000 
0.0160 0.6335 1.5691 2.7991 -0.0742 -0.0069 -0.0151 -29.3153 1.1638 -0.0350 -0.0760 0.0694 1.1156 -0.0876 -0.0117 -0.0089 
-1.2185 0.8776 9.2316 17.1965 0.0026 0.0001 -0.0139 -0.0000 0.0001 -21.4882 -41.3855 -0.0001 17.6818 33.1311 23.1140 0.0000 
-0.0032 -0.7010 0.7585 0.3059 -0.2454 0.0017 0.0014 0.0026 -0.0014 0.0406 0.3662 -0.0346 -0.0761 -0.1367 0.0626 0.0005 
0.0010 0.0009 0.0162 0.0109 0.4154 -0.0000 -0.0000 -0.0001 -0.0006 0.0038 0.2416 0.0250 -0.0118 0.0180 -0.4312 0.0000 
-0.0001 -0.0027 -0.0036 0.0012 -0.0981 -0.0001 -0.0007 -0.0001 0.0000 -0.1183 -0.0011 0.0393 -0.1581 0.0188 -0.0002 0.0001 
0.0000 -0.0005 -0.0011 0.0044 0.0387 0.0000 0.0000 -0.0000 0.0000 -95.1223 0.9105 0.2384 -71.2660 0.1934 1.0834 -0.0000 
53.0833 -45.2050 37.1674 45.2766 45.8763 -21.4942 -49.3831 -32.6050 -41.2323 -0.4648 39.6653 0.0081 2.0025 47.8840 -47.9777 -34.0334 
80.5185 -78.6028 -70.6225 -79.2837 59.8261 -30.4149 -78.5389 -40.6361 -45.2677 -19.9786 -90.7411 0.9909 -27.5860 -104.2830 -88.8995 1.1099 
0.0000 -0.0013 0.0122 1.6825 1.3529 -0.0000 -0.0077 -0.0000 -0.0000 -47.7258 -9.4442 -0.2233 37.8303 -0.3478 0.7857 -0.0000 
-15.7761 -15.4679 16.5607 5.9928 0.6783 0.2255 -8.7895 -0.0216 -0.2844 14.1746 -18.7782 -0.4214 10.1509 2.6422 -21.6508 0.0001 
0.0000 -34.9985 0.0003 -62.4263 -45.9923 0.0000 -0.0000 -0.0002 0.0000 -46.1920 -43.2599 0.6750 -56.5519 -102.4136 32.2990 -0.0000 
