0.0298 0.0310 -0.0321 0.0220 0.0254 0.0373 -0.0225 -0.0485 0.0111 0.0140 -0.0024 -0.0430 0.0210 -0.0149 0.0197 -0.0014 
-0.0036 -0.0003 0.0046 -0.0968 -0.0001 0.0001 0.0010 -0.1663 -0.0007 -0.0026 0.0000 -0.0016 -0.0010 0.0443 -0.5157 4.6183 
0.0195 -0.0301 0.0141 -0.0048 -0.0486 0.0397 0.0016 0.0173 0.0068 0.0446 0.0171 -0.0230 -0.0182 -0.0117 0.0252 -0.0031 
-0.0055 -0.0263 0.0202 0.0650 0.0609 0.0272 -0.0601 -0.0277 0.0244 0.0083 0.0157 -0.0331 0.0096 0.0174 0.0303 -0.0145 
0.0399 0.0108 0.0186 -0.0588 0.0017 -0.0281 0.0188 -0.0497 -0.0222 -0.0132 -0.0106 0.0049 0.0233 -0.0315 -0.0445 -0.0336 
-0.0021 0.0414 -0.0349 -0.0247 0.0030 -0.0264 0.0267 -0.0104 0.0169 -0.0038 -0.0029 -0.0159 -0.0394 -0.0052 0.0128 -0.0247 
-0.0233 -0.0079 -0.0143 0.0054 0.0041 0.0201 0.0051 0.0636 -0.0133 0.0232 -0.0050 0.0172 -0.0164 -0.0086 -0.0873 0.0151 
-0.0094 -0.0251 0.0160 0.0692 -0.0196 0.0110 -0.0127 -0.1199 -0.0164 0.0067 -0.0036 -0.0041 -0.0186 -0.0383 -0.0018 -0.0619 
-0.0011 0.0000 0.0126 0.3265 0.0004 -0.0001 0.0006 0.2495 -0.0022 -0.0023 0.0138 -0.0048 0.0001 0.0256 0.5076 5.9536 
0.0286 0.0433 0.0073 -0.0514 0.0007 0.0319 -0.0470 0.0089 -0.0005 0.0028 0.0300 0.0088 0.0058 -0.0118 0.0163 0.0342 
-0.0002 -0.0153 0.0004 1.4313 0.0015 0.0032 -0.0012 5.1098 0.0001 -0.0001 -0.0000 -0.0001 -0.0098 -0.0029 -0.0603 0.0271 
-0.0335 0.0238 -0.0296 0.0061 -0.0049 -0.0434 -0.0561 0.0649 0.0180 0.0318 0.0034 -0.0134 -0.0304 -0.0172 -0.0225 -0.0117 
0.0041 -0.0201 0.0335 -0.0630 0.0048 -0.0037 -0.0204 -0.0374 0.0040 -0.0101 0.0057 0.0064 -0.0038 0.0164 0.0075 -0.0116 
-0.0097 0.0171 0.0266 0.0520 0.0529 -0.0756 0.0458 0.0102 -0.0262 -0.0107 0.0191 -0.0084 0.0125 -0.0266 0.0100 -0.0172 
-0.0304 0.0226 -0.0082 0.0253 -0.0491 -0.0083 -0.0916 0.0141 0.0125 0.0088 -0.0184 -0.0506 -0.0351 0.0156 0.0047 0.0077 
-0.0042 0.0016 -0.0017 -0.1142 0.0040 -0.0066 0.0074 0.0714 0.0015 0.0018 -0.0133 -0.0144 0.0040 0.0160 -0.0596 0.0494 
-0.0002 0.0005 -0.0003 -0.5047 -0.0000 -0.0000 0.0011 0.8987 0.0006 -0.0003 0.0003 -0.0039 0.0010 -0.0015 6.0543 -0.0875 
0.0007 -0.0006 -0.0012 0.3161 0.0002 -0.0003 -0.0018 -1.1751 0.0003 -0.0003 -0.0003 -0.0034 -0.0042 0.0040 0.8543 -0.0957 
-0.0148 -0.0217 0.0173 -0.0106 0.0182 0.0113 -0.0369 0.0212 0.0209 -0.0376 0.0427 0.0140 -0.0056 0.0385 0.0362 -0.0087 
-0.0060 -0.0497 -0.0245 -0.0783 -0.0296 -0.0412 -0.0377 -0.0900 0.0080 0.0080 -0.0113 0.0095 -0.0372 -0.0152 -0.0240 0.0057 
0.0005 0.0542 -0.0281 -0.1352 -0.0037 -0.0029 0.2215 -0.1722 -0.0054 0.0073 0.0151 0.2269 0.1862 0.0027 -0.0900 -0.0119 
0.0147 -0.0317 -0.0164 -0.0638 -0.0104 0.0048 -0.0383 -0.1197 -0.0097 0.0008 0.0179 0.0021 0.0379 0.0149 -0.0273 -0.0272 
0.0000 -0.0004 -0.0000 2.3647 -0.0000 -0.0000 -0.0000 1.5440 -0.0001 0.0001 -0.0000 -0.0006 0.0000 -0.0030 -1.6250 -0.1468 
0.0023 0.0008 0.0117 0.0945 -0.0148 0.0175 -0.0132 -0.0375 -0.0015 0.0124 0.0145 -0.0090 0.0032 0.0547 -0.0065 -0.0902 
-0.0185 0.0599 -0.0228 0.0083 -0.0196 -0.0151 -0.0519 -0.0037 -0.0181 0.0009 0.0001 0.0261 0.0753 0.0139 -0.0391 0.0010 
-0.0150 0.0606 -0.0011 -0.0215 0.0475 0.0012 0.0325 -0.0409 -0.0127 0.0031 -0.0026 0.0225 0.0073 0.0260 -0.0241 0.0116 
0.0270 -0.0343 -0.0170 -0.0488 0.0071 -0.0059 0.0195 0.0337 0.0333 -0.0273 -0.0034 0.0500 0.0578 0.0067 -0.0078 -0.0224 
-0.0040 0.0667 -0.0001 -0.0462 -0.0136 -0.0532 -0.0050 0.0338 0.0149 0.0253 0.0062 -0.0107 0.0513 0.0143 -0.0334 0.0128 
-0.0273 -0.0212 0.0193 0.0164 0.0186 -0.0021 -0.0121 0.0265 0.0059 0.0162 0.0032 -0.0011 -0.0084 0.0390 0.0109 0.0366 
0.0014 -0.0012 -0.0119 -0.2571 -0.0006 0.0000 -0.0011 -0.9071 -0.0003 0.0005 -0.0008 -0.0009 -0.0003 -0.0146 0.7331 -0.3787 
0.0000 0.0001 0.0022 -23.6095 -0.0000 -0.0000 0.1582 30.4662 -0.0000 0.0000 -0.0002 -0.0658 -0.0009 -0.0001 -0.1387 -0.0056 
-0.0256 -0.0116 0.0220 -0.0133 0.0366 0.0140 -0.0065 -0.0282 -0.0091 0.0189 0.0097 0.0337 -0.0530 0.0059 -0.0407 0.0237 
