0.0374 -0.0339 0.0305 0.0215 0.0681 -0.0063 0.0156 -0.0212 -0.0133 -0.0186 -0.0167 -0.0075 -0.0306 -0.0191 0.0129 0.0250 
-0.0201 -0.0338 -0.0420 0.0298 -0.0455 -0.0004 -0.0338 0.0090 0.0267 -0.0104 0.0311 0.0212 0.0349 0.0233 -0.0178 0.0122 
0.0405 -0.0317 -0.0139 0.0204 0.0138 -0.0317 0.0322 0.0332 -0.0131 0.0478 -0.0221 0.0227 -0.0188 0.0369 0.0185 0.0083 
-0.0412 0.0219 -0.0145 -0.0229 -0.0305 -0.0146 0.0361 -0.0367 0.0206 0.0315 0.0330 -0.0036 0.0047 -0.0300 -0.0372 -0.0068 
-0.0018 -0.0040 -0.0038 0.3610 0.0774 0.1853 0.0079 -0.0082 0.0114 -0.0079 0.0061 -0.0021 0.1755 -0.0179 0.3093 -0.0116 
-0.0364 -0.0190 -0.0202 -0.0076 0.0166 -0.0345 0.0008 -0.0133 -0.0280 -0.0107 0.0212 0.0142 0.0102 0.0381 -0.0359 0.0322 
-0.0185 -0.0092 0.1399 -0.0109 -0.0781 0.0489 -0.0116 -0.0222 0.0118 0.0267 -0.0011 0.1036 -0.0276 -0.0055 0.0126 0.0041 
0.0229 -0.0101 0.1106 -0.0106 -0.0006 -0.0002 0.0026 0.0035 0.0116 -0.0057 -0.0111 -0.0141 -0.0556 -0.0144 -0.0059 0.0098 
-0.0054 -0.0380 0.0200 0.0139 -0.0790 -0.0804 0.0142 0.0227 0.0269 -0.0167 0.0136 -0.0078 0.0145 0.0255 0.0780 -0.0171 
0.0600 0.0267 -0.0077 -0.0054 -0.0109 -0.0707 0.0270 -0.0147 -0.0046 -0.0245 0.0138 0.0363 -0.0217 -0.0280 -0.0021 0.0181 
-0.0045 -0.0469 -0.0052 -0.0215 -0.0437 -0.1040 -0.0069 -0.0073 -0.0063 -0.0170 0.0058 0.0152 0.0513 0.0280 -0.0989 0.0038 
0.0004 0.0731 -0.0037 0.4668 0.0735 0.3208 -0.0026 -0.0050 -0.0042 -0.0052 0.0029 0.0002 -0.2440 -0.1837 -0.1966 -0.0000 
0.0127 0.0027 0.2407 0.0056 0.0926 -0.0720 -0.0077 -0.0213 -0.0054 0.0159 -0.0130 0.2267 -0.0214 -0.0096 0.0007 0.0164 
0.0280 0.0034 0.0811 -0.0121 0.0075 -0.0329 -0.0117 0.0163 -0.0135 -0.0345 -0.0180 -0.0171 -0.0354 0.0025 0.0235 0.0224 
-0.0184 0.0474 0.0119 0.0755 -0.0786 0.0584 -0.0248 -0.0136 0.0117 -0.0251 -0.0168 -0.0228 -0.0480 0.0409 -0.0566 0.0244 
-0.0145 -0.0451 -0.0268 0.0427 -0.0217 0.0005 0.0042 0.0097 0.0039 0.0194 -0.0274 0.0296 -0.0279 0.0521 0.0187 0.0028 
0.0258 -0.0139 0.0036 0.0240 -0.0315 0.0127 -0.0422 0.0388 0.0191 -0.0228 -0.0420 0.0454 -0.0517 -0.0299 0.0289 -0.0141 
-0.0189 -0.0537 -0.0256 0.0174 0.0010 0.0374 -0.0147 -0.0341 0.0070 -0.0120 0.0323 0.0392 -0.0283 0.0092 -0.0031 -0.0373 
0.3235 -0.0029 0.3868 -0.0020 0.0688 0.1272 -0.0052 -0.0065 -0.0043 -0.0133 -0.0034 -0.4311 -0.1656 -0.0051 -0.0002 0.0012 
-0.0131 0.0617 -0.0079 0.0247 -0.0053 0.0086 0.0052 -0.0135 0.0128 0.0024 -0.0166 -0.0097 -0.0932 -0.0076 -0.1011 -0.0151 
-0.0008 0.1387 -0.0090 -0.1140 0.0861 -0.0613 -0.0024 0.0137 -0.0047 0.0063 -0.0170 0.0046 0.0680 -0.0059 -0.0869 0.0117 
-0.0367 -0.0068 -0.0116 0.0131 0.0501 -0.0488 0.0198 0.0318 0.0112 0.0207 -0.0452 0.0315 -0.0342 -0.0283 0.0338 0.0154 
-0.0290 -0.0445 0.0236 0.0534 -0.0140 -0.0353 0.0309 0.0211 0.0316 0.0325 -0.0095 0.0114 -0.0166 0.0097 -0.0060 0.0022 
-0.0444 0.0350 -0.0319 0.0469 0.0753 0.0699 0.0151 0.0010 0.0056 0.0178 -0.0102 0.0292 0.0980 -0.0348 -0.0028 -0.0186 
-0.0188 -0.0287 -0.0325 0.0184 -0.0092 -0.0730 -0.0052 -0.0123 0.0246 0.0208 0.0288 -0.0219 -0.0173 -0.0114 0.0312 -0.0066 
-0.0378 0.0225 -0.0262 -0.0176 0.1038 -0.0787 0.0043 -0.0021 0.0127 0.0217 -0.0075 0.0848 -0.1296 0.0162 -0.0187 -0.0035 
0.0707 -0.0133 -0.0715 -0.0047 -0.0482 -0.0008 0.0102 -0.0192 -0.0083 0.0108 -0.0031 0.0311 -0.0943 -0.0190 -0.0238 -0.0081 
-0.0153 -0.0074 -0.0017 -0.0827 0.0693 -0.1716 -0.0005 0.0023 -0.0068 0.0051 0.0012 -0.0154 -0.0181 0.0357 0.0192 -0.0012 
0.0366 0.0238 0.0283 -0.0318 -0.0420 0.0136 -0.0057 -0.0014 -0.0152 0.0270 -0.0248 -0.0086 -0.0575 -0.0299 0.0287 -0.0209 
0.0247 -0.0252 -0.0322 -0.0122 -0.0265 0.0268 0.0309 -0.0097 -0.0044 0.0015 0.0054 0.0481 -0.0413 -0.0284 -0.0125 -0.0235 
4.1156 -0.0000 -4.3243 -0.0000 2.0062 1.1465 0.0000 -0.0025 0.0001 0.0009 0.0000 10.0433 5.3148 -0.0001 -0.0000 0.0002 
-0.0000 -11.5136 -0.0001 7.4462 2.7798 2.5022 -0.0005 -0.0001 0.0000 0.0001 -0.0003 0.0000 1.9081 2.2989 14.4220 0.0003 
