-0.0107 -0.0059 0.0214 -0.1006 -0.0037 -0.0028 0.0056 0.0988 0.0001 0.0008 -0.0121 -0.0210 -0.0337 0.2173 0.0043 0.0054 
-276.2306 753.6100 -37.3438 -886.0084 -0.5176 839.6309 -419.2408 861.7801 641.8452 107.8396 -555.6082 -530.0272 -139.5308 930.6538 288.4203 332.8190 
1.2093 118.0252 -28.4997 -140.2123 -9.1307 -83.7453 -119.0787 -152.2617 29.0287 81.8845 113.6985 -79.5526 -28.5652 96.3132 -1.4074 -12.1524 
-62.8517 72.6838 -1062.1769 -1325.4923 -338.9079 -514.5962 537.7410 1334.0742 -47.1668 -491.8224 313.1582 -461.7788 -530.7702 -530.2465 53.7442 337.3945 
-735.3660 -999.3905 -162.2737 2387.0688 -430.8841 -2372.3125 -2500.4441 -2114.8628 1007.2352 -14.6132 -1626.7478 636.5699 -122.7311 1228.0790 730.7047 -1510.0763 
-396.0557 1014.4302 0.0000 -2058.9673 -96.4446 1911.5891 1384.0359 -2002.0397 -893.7544 -257.4585 -1045.8593 812.6628 -287.3069 -1272.6108 376.3142 -751.9211 
-545.1642 933.7653 -57.1124 -2845.9629 -698.2827 -3689.5505 -2938.8479 -2746.7642 -938.3648 286.9795 1317.0554 -881.2698 229.7624 1492.7604 -546.0737 -1271.8883 
314.3763 -186.0271 1857.4476 1684.7314 -1199.1606 -1216.2239 -1689.4456 949.3900 -615.0973 18.7208 -2024.5634 -94.0709 71.7810 -418.2366 202.0600 -1870.3864 
-178.9676 -192.8655 -373.4078 -869.8042 161.9506 -556.5571 -276.2523 776.4875 -177.4155 -237.0141 141.6254 253.6141 697.0578 -545.3018 -212.0122 -208.8491 
318.8721 -12.0718 400.2906 802.1174 639.9455 617.4472 813.6004 -822.4717 14.0156 -297.7618 -639.2004 237.6899 63.1454 6.1925 320.4167 -773.6533 
-307.5697 -1107.1011 -0.0001 -2620.8479 120.4052 -2396.9290 -2307.5215 2464.2070 -741.5479 279.0043 -1232.6622 -1456.0846 255.2276 -2444.6333 -313.8004 838.6704 
115.1524 -325.2469 -294.0920 -1383.4526 0.1407 -1418.4243 1184.0864 -1074.7535 -547.9184 41.1241 752.6592 230.0010 -115.9303 715.4211 -128.7141 -700.2717 
1024.3762 -73.7822 -779.1814 1709.1929 -165.2839 -1612.8298 665.5661 -1679.9517 770.1811 -784.7558 -686.3043 -832.3673 333.8165 -32.2419 994.4998 -1669.5514 
-532.9536 -43.9143 1041.5886 2083.9468 39.8804 -1494.0225 271.7862 -2007.5459 594.2596 -1576.7902 188.4138 -1313.9774 -420.1212 -316.1928 464.8289 -941.6987 
332.5695 -254.8043 1036.1936 1818.6794 -299.9038 -1196.6272 -1055.1974 -1783.4535 217.0745 -140.8364 -523.4916 -219.4283 -359.2637 262.7000 -345.8282 -446.3976 
-204.9753 265.4684 15.5389 -670.9825 88.3789 469.9971 -406.5207 -647.7188 248.6963 -12.0425 -515.5687 -381.2354 -40.7765 -411.4565 -211.0975 284.0576 
-464.4149 192.7005 -1787.7197 -2059.1628 -62.0122 -1336.0394 531.7283 -1808.3147 358.8951 702.4804 -462.0925 -844.9337 433.9212 -565.4331 469.5251 1307.3011 
-451.7026 -1256.9019 -249.0086 -2438.9753 2.0632 -2842.1841 -2029.7920 2431.5337 1194.1744 142.5968 888.9978 548.2941 -359.0759 -1317.7767 -457.0292 818.1223 
0.0192 -0.0097 -0.1346 -0.0101 -0.7306 0.0467 0.2341 0.0125 -0.0011 -0.0004 0.4084 -0.0015 -0.0002 0.0014 -0.0274 -0.0224 
51.2038 202.7234 181.7910 -611.0179 -111.7515 355.0402 115.9271 -610.9406 231.1746 -452.6575 113.8485 -292.2278 -667.4107 615.1730 56.8188 -106.4198 
0.0202 -0.0362 0.0001 0.0003 -0.0002 -0.0004 -0.0011 0.0001 -0.0148 0.0001 -0.0038 0.0016 0.0020 0.0960 -0.0250 -0.0045 
94.9275 -84.8020 -123.4298 309.1145 124.9975 -207.4362 123.7131 -232.5498 39.6549 70.0387 206.2155 104.9676 -182.9044 32.0810 102.1673 143.5399 
-126.1297 0.1304 -2368.4250 -3533.1721 -944.8636 -2329.3252 -1016.9930 -3218.5959 68.5142 -665.8511 1048.0944 -670.7075 -40.3139 -101.4729 -116.9051 -1832.7719 
-133.7876 -23.3345 3678.3127 -6517.9551 1717.8007 4023.7336 -2604.4299 5515.2612 -70.1884 -1902.6727 1769.2893 1886.3711 -160.7477 -67.3972 91.3020 -3408.0042 
238.8223 -795.5295 428.9490 1836.3005 454.9773 1698.1422 1074.2522 1517.9036 -879.8176 -78.9980 -1781.6927 275.6418 -82.9687 304.0829 433.7759 -1039.5709 
487.9202 0.0243 -2043.5721 -2640.4497 -153.9604 -1665.6472 -983.4854 -2137.9429 -566.0038 -1011.3575 -1123.3525 1026.3958 610.7753 228.7331 402.2865 -2149.5237 
617.5860 61.8730 -2748.5991 -2556.5576 -391.4399 -1969.3053 -593.0016 2005.7035 -337.9230 -1055.2006 -649.0536 929.7799 202.3400 -315.6769 -715.0496 2209.2285 
-361.5925 496.2820 1120.0907 -2246.8149 102.0218 -2131.6021 -381.9573 -2207.0449 -1538.1104 895.7839 496.7619 1014.9703 197.5428 213.3774 -505.5844 -994.5670 
352.4286 -359.3142 -8.8566 -1348.8668 2.6443 941.2535 -929.7820 -1234.6400 36.6536 -288.2654 -404.5632 -1021.6885 271.2891 -1053.4463 353.5829 407.6448 
91.7576 728.1370 -830.7100 -2055.0012 22.5437 1502.3914 269.4283 -1932.7754 641.0551 150.9920 533.8527 399.6440 -432.1097 902.3360 -97.3919 221.0589 
125.7177 145.0951 -50.9887 -1015.7570 -29.1962 -929.2395 903.4523 -1013.1380 137.5555 706.1259 51.0327 703.4930 -738.5475 813.2756 111.5297 -53.5730 
222.4139 454.3560 -334.6717 916.5342 103.7193 -663.3807 -560.7179 814.3908 338.8088 173.9208 331.1135 -381.2508 -104.1444 -1014.4340 167.6498 -440.3752 
