-0.1668 -0.2952 0.1747 0.1794 -0.0960 0.1906 0.1985 -0.0315 0.0423 0.1818 -0.0985 0.0198 -0.4419 -0.1893 -0.2101 -0.1286 
0.2653 0.6980 -0.3863 -0.3015 0.3347 -0.4762 0.0307 -0.3998 -0.0098 -0.4532 0.1673 -0.3625 0.5051 0.3481 0.0252 0.2259 
-0.1791 -0.8200 0.4278 0.3403 -0.5650 0.5639 -0.0542 0.6094 -0.0983 0.5425 -0.1797 0.5168 -0.5876 -0.5513 -0.1014 -0.4084 
0.0841 0.6835 -0.2203 -0.1487 0.7035 -0.6210 0.4379 -0.9766 0.1026 -0.3789 0.0980 -0.5872 -0.1202 0.5847 -0.4035 0.2869 
-0.2749 -0.5851 0.3667 0.3005 -0.2598 0.3699 0.1473 0.3368 -0.0287 0.4317 -0.1737 0.2692 -0.5428 -0.3010 -0.1074 -0.2672 
0.4707 1.8764 -0.9266 -0.8155 1.2994 -1.4335 0.2565 -1.4604 0.0995 -1.3667 0.3262 -1.3259 1.2466 1.0087 0.2433 0.7886 
0.0458 0.2961 -0.1022 -0.1587 0.1979 -0.1575 -0.0847 -0.2666 0.0383 -0.0707 0.1657 0.0299 0.0030 0.3314 -0.1432 0.1337 
-0.0326 -0.2045 0.1357 0.0753 -0.2555 0.1475 -0.0592 0.3011 -0.0423 0.1611 -0.0137 0.1835 -0.0119 -0.2103 0.0690 -0.0892 
-0.4586 -1.6048 0.7084 0.6884 -1.0178 1.1263 -0.1822 1.1686 -0.0958 1.1454 -0.3533 1.0625 -0.9682 -0.9029 -0.1110 -0.7051 
0.2272 1.0162 -0.4542 -0.3724 0.7486 -0.8132 0.1527 -0.9031 0.0984 -0.6424 0.2803 -0.6430 0.5374 0.7016 -0.0997 0.5042 
-0.2620 -1.1537 0.6019 0.5357 -0.7486 0.8854 -0.1954 0.8257 -0.0160 0.8525 -0.1571 0.7977 -0.8713 -0.5371 -0.2164 -0.5070 
-0.0484 -0.1423 0.0284 0.0808 -0.1636 0.1437 -0.0981 0.1975 0.0327 0.2024 -0.0348 0.2387 -0.1244 -0.0687 -0.0128 -0.0915 
0.1222 0.3793 -0.1458 -0.1655 0.2529 -0.2343 0.0410 -0.2776 0.1011 -0.2526 0.0696 -0.1623 0.1328 0.2312 -0.0766 0.2038 
0.5963 2.0457 -1.0251 -0.8545 1.3762 -1.5156 0.2811 -1.4523 0.0965 -1.6029 0.4039 -1.4278 1.6026 1.0700 0.4172 0.9306 
-0.6881 -2.3867 1.1937 0.9887 -1.5980 1.7029 -0.2775 1.7189 -0.1533 1.6549 -0.4794 1.4147 -1.5966 -1.4095 -0.2331 -1.0169 
0.3590 1.5410 -0.7270 -0.6597 1.0775 -1.1766 0.3224 -1.2479 0.0921 -1.1333 0.2789 -1.1161 0.9958 0.8292 0.1732 0.6942 
-0.2084 -0.2924 0.2081 0.2240 -0.0492 0.1435 0.2862 -0.0633 -0.0067 0.2429 -0.1526 -0.0040 -0.4260 -0.2457 -0.2036 -0.1907 
0.2468 0.5395 -0.3287 -0.2165 0.2400 -0.3046 -0.0151 -0.2657 0.0004 -0.3756 0.1683 -0.1960 0.4147 0.3469 0.0553 0.1764 
-0.2081 -0.7266 0.4406 0.3120 -0.5291 0.5099 0.0010 0.5497 -0.0988 0.5607 -0.1867 0.4756 -0.6032 -0.5128 -0.1365 -0.3838 
0.1026 0.6012 -0.1883 -0.1149 0.5753 -0.5602 0.3487 -0.8136 0.0937 -0.3978 0.0905 -0.5792 0.0005 0.5015 -0.2922 0.2999 
-0.2543 -0.6101 0.3206 0.2433 -0.2585 0.3314 0.2355 0.2055 -0.0285 0.3616 -0.1481 0.1826 -0.5775 -0.3428 -0.1147 -0.2765 
0.4934 1.7878 -0.8996 -0.7820 1.2543 -1.3346 0.3028 -1.4018 0.0564 -1.3683 0.2819 -1.2971 1.1911 0.9648 0.2564 0.8225 
0.0685 0.2621 -0.0937 -0.1152 0.0806 0.0021 -0.2169 -0.0967 0.0796 -0.0399 0.1529 0.1360 -0.0098 0.2733 -0.0847 0.0580 
-0.0450 -0.1864 0.0839 0.0627 -0.2201 0.1663 -0.0040 0.1777 -0.0098 0.1750 -0.0535 0.1643 -0.0880 -0.1982 0.0224 -0.1394 
-0.4450 -1.5732 0.7276 0.6750 -1.0232 1.1094 -0.1164 1.0758 -0.1409 1.1402 -0.3050 0.8931 -1.0193 -0.9348 -0.1934 -0.7364 
0.2789 0.9761 -0.4199 -0.3863 0.7088 -0.8421 0.2017 -0.9129 0.0733 -0.6023 0.2645 -0.6550 0.5437 0.6500 -0.0275 0.4617 
-0.2791 -1.1192 0.5256 0.4977 -0.6386 0.8224 -0.1254 0.7077 -0.0075 0.7708 -0.2068 0.7183 -0.7353 -0.5381 -0.2154 -0.4644 
0.0027 -0.3008 0.1016 0.0815 -0.3164 0.2811 -0.1879 0.3729 -0.0208 0.2635 -0.0114 0.3847 -0.2080 -0.1075 -0.0341 -0.1307 
0.1702 0.3219 -0.1760 -0.1545 0.1928 -0.2078 -0.0377 -0.1990 0.0884 -0.2308 0.0526 -0.1551 0.1796 0.2662 0.0490 0.2009 
0.6062 2.0270 -1.0158 -0.8306 1.2784 -1.4299 0.2033 -1.3759 0.1100 -1.5793 0.3987 -1.3464 1.5547 1.0475 0.4083 0.8457 
-0.6280 -2.1684 1.1051 0.9269 -1.4589 1.5219 -0.1620 1.5715 -0.1860 1.5158 -0.4608 1.2742 -1.4534 -1.2987 -0.1496 -0.9619 
0.3007 1.4602 -0.7097 -0.6262 1.0845 -1.0999 0.3006 -1.1915 0.0997 -1.0646 0.2844 -1.1044 0.9696 0.8236 0.1165 0.6295 
0.0168 0.7156 -0.5722 0.0514 -0.0754 0.0491 -0.0508 -1.8851 -0.1886 -0.0023 -0.0647 0.1155 -1.0480 -1.2384 0.0088 -0.0948 
-0.0476 2.1150 -0.0145 0.3021 -0.0188 0.0136 0.2141 -0.6754 -0.1731 -0.0751 -0.0418 -0.0281 -0.9965 0.3113 -0.0849 -0.4475 
0.0713 0.7994 -0.1929 0.1003 -0.0904 0.0008 -0.0695 0.0142 -0.2492 0.0495 -0.3431 0.0050 -0.9722 -0.6629 0.0392 -0.4356 
-0.1234 -0.5440 -0.2588 -0.1207 -0.2449 0.0122 -0.0714 -1.2600 0.2197 -0.0641 0.3372 0.0106 1.1776 -1.1140 0.0508 0.6704 
0.0099 1.0537 -0.4989 0.0078 0.0031 0.0426 -0.0691 -1.2821 -0.1135 -0.0034 0.1373 0.0430 -0.7536 -0.8354 -0.0090 -0.0477 
-0.1440 2.5758 -0.3388 0.0687 -0.0402 0.1195 0.2311 0.2727 0.0544 0.0595 0.5586 0.0328 -0.4794 -1.0639 -0.0141 -0.0494 
-0.1262 -0.0939 -0.1264 0.1323 0.0723 0.1017 0.0201 -1.3749 0.2919 -0.1729 0.3521 -0.0601 0.6226 0.8646 -0.0011 0.3456 
-0.1998 -1.2090 0.1298 0.3053 -0.3214 -0.0383 0.1355 1.4047 0.1047 -0.0668 -0.0190 -0.0809 0.3406 -0.4494 -0.0867 0.1469 
0.2153 0.1331 0.1316 0.0635 0.3004 -0.0016 0.0162 -1.0858 -0.4345 -0.0416 -0.6753 -0.0124 -1.8058 1.2318 -0.0497 -0.8266 
-0.2345 1.7639 0.0283 0.2598 0.0034 0.1370 0.2621 0.1306 0.2277 -0.1201 0.6472 -0.1117 -0.2947 0.3916 -0.0867 0.0013 
0.2369 -0.4557 0.0896 -0.0252 0.3247 -0.0160 -0.1273 -1.6390 -0.4065 -0.0092 -0.6389 0.0669 -1.1416 1.3128 -0.0090 -0.5171 
0.1710 0.5874 -0.2641 0.1249 0.0890 0.0680 -0.0198 -1.4038 -0.1504 0.0272 -0.1572 0.1204 -0.3014 -0.0739 0.0300 -0.1005 
0.2567 0.4664 -0.2000 -0.1638 0.2638 0.0608 -0.1752 -1.1926 -0.2573 0.1767 -0.1824 0.1476 -0.3600 -0.3030 0.0692 -0.1701 
0.1991 2.1945 -0.1302 -0.1446 0.1293 0.0455 0.0653 0.7231 -0.2043 0.2214 0.1075 0.1246 -0.4701 -1.0983 0.0887 -0.2389 
0.1701 -2.5472 0.2205 -0.1881 0.0770 -0.1329 -0.1352 -0.1969 -0.1198 0.0386 -0.5928 0.0747 0.1437 0.3928 0.0409 -0.1059 
-0.2034 0.8746 -0.1077 -0.1185 -0.3044 -0.0391 0.1167 1.0093 0.2810 0.0496 0.6177 -0.0818 0.9638 -1.2207 -0.0402 0.5439 
