0.0267 0.0096 0.0445 0.0324 0.0536 0.0116 -0.0521 0.0149 -0.0043 0.0440 -0.0102 0.0348 0.0840 -0.0128 -0.0055 0.0203 -0.0010 -0.0135 0.0239 -0.0251 -0.0279 0.0200 0.0000 0.0008 -0.0166 0.0374 0.0085 0.0142 0.0304 0.0372 -0.0039 0.0208 
0.0037 -0.3547 -0.0047 -0.0034 0.0109 0.0033 -0.0112 -0.0754 -0.0768 -0.0137 -0.0000 -0.0034 0.0064 -0.0123 -0.0252 0.0208 -0.0086 0.0000 0.0386 -0.0330 -0.0001 -0.0004 0.0535 0.0069 -0.0206 0.0040 -0.0190 -0.0257 -0.0792 0.0001 8.7750 0.0237 
0.0402 -0.0244 -0.0173 0.0371 0.0466 -0.0023 0.0383 -0.0058 0.2197 0.0167 0.2915 0.0073 0.0514 -0.0576 -0.0290 -0.0211 0.0494 -0.0598 0.0238 -0.0128 0.0131 0.0140 -0.0003 -0.0310 -0.0244 -0.0171 -0.0059 0.0006 0.0778 -0.0099 -0.0051 0.0347 
0.0445 0.0066 0.0196 0.0398 -0.0466 0.0085 -0.0278 -0.0261 -0.0013 -0.0387 0.0114 -0.0266 -0.0420 0.0553 0.0023 -0.0325 -0.0037 -0.0131 -0.0112 -0.0383 0.2783 -0.0243 -0.0000 -0.0667 0.0255 0.0093 0.0180 0.0257 0.0145 -0.2457 0.0225 0.0386 
0.0451 -0.0030 0.0133 0.0476 0.0654 0.0455 0.0864 -0.0189 -0.0008 0.0087 -0.0276 -0.0237 0.0054 0.0600 -0.0087 0.0245 -0.0007 0.0036 0.0288 -0.0182 -0.0765 0.1012 -0.0016 0.0797 0.0060 0.0566 0.0060 0.0089 -0.0108 -0.0790 -0.0092 0.0343 
-0.0086 -0.0213 0.0277 -0.0200 -0.0595 0.0288 -0.0076 -0.0243 -0.0018 0.0328 -0.0046 0.0422 0.0246 0.0287 0.0112 -0.0362 -0.0007 0.0003 -0.0302 0.0122 -0.0026 0.0035 0.0008 -0.0599 0.0023 -0.0413 0.0137 0.0088 -0.0116 -0.0452 -0.0359 0.0158 
-0.0476 -0.0125 0.0409 -0.0604 0.0640 -0.0148 -0.0297 -0.0074 -0.0050 0.0198 -0.0107 0.0500 -0.0108 0.0570 0.0283 0.0237 -0.0022 -0.0485 0.0011 0.0432 0.1015 -0.1971 0.0000 -0.0575 -0.0343 0.0147 0.0300 -0.0182 0.0070 -0.3137 0.1973 0.0333 
-0.0079 4.3204 0.0431 -0.0134 -0.0101 -0.0251 0.0092 0.0015 5.1040 0.0423 -0.0001 -0.0296 0.0304 -0.0034 -0.1323 -0.0125 0.0763 0.0019 -0.0166 -0.0410 0.0012 -0.0079 0.0000 0.0085 -0.0394 -0.0186 -0.0452 0.0149 -0.0200 -0.0030 0.0012 0.0404 
0.0405 -0.0133 -0.0358 -0.0300 -0.0009 0.0422 0.0219 -0.0217 0.0424 -0.0308 -0.0042 0.0216 0.0181 -0.0106 -0.0313 -0.0126 0.3371 -0.0139 0.0131 -0.0004 0.0957 -0.0674 -0.0000 0.0423 -0.0102 -0.0288 0.0111 0.0358 -0.0225 -0.1629 0.0526 -0.0394 
-0.0018 0.0346 -0.0079 0.0454 0.0244 -0.0239 -0.0304 0.0022 -0.0021 0.0075 -0.0263 -0.0343 0.0574 -0.0146 -0.0014 0.0447 0.0054 -0.0094 -0.0093 0.0139 -0.0195 0.0101 0.0001 0.0201 0.0194 -0.0407 0.0026 0.0486 -0.0270 -0.0187 -0.0377 0.0200 
-0.0269 0.0063 0.0178 0.0258 0.0116 0.0403 -0.0089 -0.0303 -0.0250 0.0099 -0.0000 -0.0083 0.0202 0.0245 -0.0109 0.0153 0.5033 0.0020 -0.0114 -0.0698 -0.0460 0.0351 -0.0000 -0.0312 0.0925 -0.0120 0.0794 -0.0357 0.0089 -0.0077 0.6507 0.0168 
0.0127 -0.0012 -0.0008 -0.0173 -0.0204 0.0280 -0.0017 0.0206 -0.0024 0.0309 -0.0241 -0.0148 0.0120 -0.0041 -0.0385 0.0016 -0.0067 -0.0006 0.0174 -0.0046 -0.0124 0.0007 -0.0000 -0.0187 0.0286 -0.0001 0.0012 -0.0047 0.0084 -0.0127 -0.0262 -0.0333 
0.0179 0.0704 0.0066 -0.0394 -0.0026 -0.0696 0.0183 0.0394 0.7746 -0.0651 -0.0000 -0.0059 0.0012 -0.0109 0.0820 0.0160 3.8827 0.1586 -0.0382 -0.0691 -0.0475 0.0151 -0.0000 0.0270 -0.0408 -0.0391 -0.0088 0.0150 -0.0344 0.0038 0.0086 -0.0342 
-0.0362 0.0011 -0.0119 0.0148 0.0034 -0.0176 0.0076 -0.0163 -0.0394 0.0150 4.8464 0.0429 -0.0423 0.0359 0.0067 0.0438 -0.0098 0.0106 -0.0459 -0.0009 -0.0053 0.0033 -0.0043 -0.0028 0.0116 0.0513 -0.0221 0.0452 0.0003 -0.0115 -0.0176 0.0152 
0.0195 0.0033 -0.0101 -0.0321 0.0450 0.0428 0.0079 -0.0209 0.0047 -0.0149 -0.0339 0.0302 -0.0485 0.0119 0.0162 -0.0042 -0.0082 0.0168 0.0433 0.0130 -0.0342 -0.0179 -0.0103 0.0576 -0.0152 -0.0179 0.0361 0.0340 -0.0006 -0.0770 0.0035 -0.0402 
0.0096 0.1881 -0.0161 0.0009 0.0185 0.0506 0.0108 0.0118 -0.2386 0.0277 -0.0004 -0.0070 -0.0069 -0.0308 0.0437 0.0196 0.9588 0.0193 -0.0179 -0.0793 -0.0160 -0.0026 -0.0000 0.0014 0.0405 0.0339 -0.0217 -0.0197 0.1198 0.0044 -0.0085 0.0123 
