0.0512 -0.0495 0.0490 0.0403 -0.0380 -0.0056 -0.0700 0.0157 -0.0676 0.0298 -0.0948 -0.1378 0.0388 0.0993 0.0744 0.0052 
-0.4909 -0.1988 0.6093 -0.1343 0.5810 -0.1232 0.4333 -0.3168 0.1064 -0.4139 0.5850 0.5502 -0.2044 -0.6638 -0.5107 0.0032 
0.7608 0.2293 -0.9750 0.2123 -0.8213 0.1871 -0.7678 0.5298 -0.0754 0.8756 -1.0200 -0.8885 0.2088 1.0784 0.9498 0.0432 
-1.1165 -0.3519 1.3177 -0.4163 1.2116 -0.2426 1.0195 -0.6840 0.2284 -1.1750 1.3883 1.2954 -0.3900 -1.5106 -1.2763 -0.0696 
-0.8873 -0.2438 1.0137 -0.2484 0.9606 -0.2847 0.8053 -0.6067 0.2299 -0.8858 1.0329 1.0974 -0.3200 -1.2710 -1.0437 -0.0371 
-0.9038 -0.2675 1.2257 -0.3517 0.9388 -0.2948 0.8379 -0.6713 0.0142 -0.9768 1.1342 1.0218 -0.2339 -1.1892 -1.0863 -0.0520 
0.3733 0.1002 -0.5147 0.1508 -0.4308 0.1036 -0.3634 0.2558 -0.0299 0.4568 -0.5250 -0.4839 0.0949 0.5833 0.4589 0.0449 
1.7672 0.4704 -2.1837 0.6256 -2.0380 0.5189 -1.7992 1.2215 -0.3279 1.8787 -2.3173 -2.0972 0.6127 2.6090 2.1669 0.1408 
0.5295 0.1763 -0.6677 0.2183 -0.6860 0.1078 -0.5661 0.3922 -0.0971 0.5472 -0.7045 -0.7033 0.1789 0.7947 0.6770 0.0268 
0.3482 0.1241 -0.5135 0.1554 -0.3520 0.0547 -0.3080 0.2806 0.0480 0.3739 -0.3806 -0.2771 0.0210 0.3701 0.4139 0.0178 
-0.8038 -0.2087 1.1009 -0.2349 0.8339 -0.2392 0.8618 -0.6532 -0.0051 -0.9816 1.0527 0.9313 -0.2030 -1.1079 -1.0518 -0.0762 
0.2024 0.0906 -0.3436 0.0888 -0.1419 0.0476 -0.1870 0.1619 0.0910 0.2211 -0.2605 -0.2130 -0.0077 0.1836 0.2899 -0.0167 
-0.4215 -0.1389 0.5020 -0.1643 0.3031 -0.1343 0.3171 -0.3249 -0.0720 -0.4424 0.4333 0.4021 -0.0503 -0.4261 -0.5073 0.0282 
-0.6979 -0.2486 0.8299 -0.2602 0.7970 -0.2200 0.6826 -0.4630 0.1311 -0.7323 0.8661 0.8275 -0.2728 -0.9776 -0.8563 -0.0707 
-0.5173 -0.1674 0.7071 -0.1439 0.5550 -0.1788 0.6086 -0.3940 -0.0241 -0.6668 0.7261 0.6597 -0.1114 -0.7894 -0.7309 -0.0596 
0.5037 0.2057 -0.6750 0.1262 -0.4487 0.1102 -0.4703 0.3332 0.0287 0.5164 -0.5817 -0.4833 0.0737 0.6615 0.5616 -0.0075 
-0.0279 -0.0418 -0.0227 -0.0129 -0.0288 0.1156 -0.0915 -0.0178 -0.0141 0.0772 -0.0864 -0.1408 -0.0147 0.1026 0.0601 0.0481 
-0.4134 -0.1618 0.4928 -0.1465 0.4602 -0.1665 0.3980 -0.2191 0.1383 -0.2871 0.5139 0.5544 -0.2466 -0.6103 -0.5008 0.0389 
0.8308 0.1677 -1.0603 0.3057 -0.8835 0.2476 -0.7944 0.5885 -0.0204 0.9513 -1.0844 -0.9268 0.1758 1.1327 1.0279 0.1242 
-1.1143 -0.3469 1.3537 -0.4198 1.3376 -0.2486 1.0132 -0.7811 0.1927 -1.1448 1.4059 1.2669 -0.3303 -1.5307 -1.2832 -0.0360 
-0.8717 -0.1950 1.0454 -0.3272 0.9455 -0.1901 0.8533 -0.5847 0.1122 -0.9441 1.0889 1.0188 -0.2938 -1.2080 -1.0238 -0.0874 
-0.9837 -0.3057 1.3553 -0.3669 0.9819 -0.3220 0.9566 -0.7496 -0.0292 -1.1062 1.2064 1.1131 -0.1843 -1.3263 -1.2349 -0.0411 
0.4520 0.0783 -0.5897 0.1013 -0.4974 0.1001 -0.4175 0.3014 -0.0667 0.4609 -0.5176 -0.5270 0.1354 0.5843 0.5446 0.0083 
1.8025 0.5092 -2.2720 0.5847 -2.0280 0.4772 -1.8334 1.2748 -0.2792 2.0333 -2.3310 -2.1305 0.5297 2.6196 2.2551 0.1921 
0.5861 0.1986 -0.6885 0.2521 -0.7437 0.1440 -0.5748 0.3328 -0.1521 0.6221 -0.7235 -0.6518 0.2050 0.7975 0.6615 0.0794 
0.3478 0.1640 -0.4377 0.1296 -0.4210 0.0088 -0.2650 0.2220 -0.0545 0.3783 -0.3652 -0.3074 0.1094 0.3660 0.3171 0.0469 
-0.9110 -0.2451 1.1961 -0.3145 0.8520 -0.2175 0.9072 -0.6469 -0.0291 -1.0275 1.1388 0.9346 -0.1290 -1.1866 -1.0797 -0.0719 
0.1984 0.1150 -0.2704 0.0610 -0.1425 0.1140 -0.1642 0.1822 0.0572 0.2012 -0.2246 -0.2610 0.0363 0.1819 0.3247 -0.0106 
-0.3678 -0.1400 0.5301 -0.1191 0.2903 -0.1324 0.3414 -0.2532 -0.0850 -0.4357 0.4609 0.3299 -0.0679 -0.4240 -0.4243 0.0420 
-0.7033 -0.2266 0.8186 -0.2036 0.7159 -0.2562 0.6698 -0.4833 0.1532 -0.7075 0.9131 0.8639 -0.3321 -1.0257 -0.8238 -0.0129 
-0.5750 -0.1202 0.8087 -0.1569 0.6262 -0.1687 0.6833 -0.4813 -0.0588 -0.8326 0.8610 0.6803 -0.1289 -0.8398 -0.8521 -0.0833 
0.5047 0.2250 -0.7671 0.1679 -0.5338 0.1455 -0.5023 0.3843 0.0245 0.5442 -0.6445 -0.5638 0.1265 0.6767 0.6268 -0.0192 
0.1874 0.4576 0.2179 0.5053 -0.0666 0.5432 0.0071 0.0150 0.0281 -0.0861 1.2800 0.4742 -0.1030 0.1771 -0.1107 0.0587 
0.1061 -0.0438 -0.1328 -0.1642 0.0042 1.5144 0.0107 0.0622 -0.1009 0.1444 -0.5171 0.2013 0.1574 -0.2014 0.0612 -0.0082 
0.0661 0.4001 0.0731 0.3604 -0.0745 -0.8757 0.0053 -0.0145 0.0510 -0.0151 0.9399 0.1713 -0.0784 0.1323 -0.0279 0.0156 
0.0713 -0.1127 -0.1980 -0.2227 0.0596 1.8819 0.0139 0.1737 -0.0442 0.2068 -0.5816 0.2756 0.1296 -0.2280 -0.0044 0.0539 
0.2005 -1.1462 -0.7917 -0.9846 0.1120 -0.2117 0.0081 0.0122 -0.0720 0.0277 -2.3421 0.4072 0.0081 -0.3218 -0.0286 -0.0085 
0.2072 -0.4661 -0.1917 -0.2948 -0.0075 1.4374 -0.0668 -0.1813 -0.0462 -0.1381 -0.6007 0.5579 -0.1747 0.0565 -0.0838 0.0928 
-0.1365 0.6022 0.3523 0.4559 -0.0320 -0.4644 -0.0646 0.1176 0.0160 0.0666 0.9587 -0.5077 0.0819 0.0424 0.0777 -0.0695 
-0.3194 1.6717 1.1418 1.5417 -0.2048 -1.8830 -0.0567 0.0382 0.1007 -0.1290 3.6380 -0.8955 -0.0940 0.5720 -0.0052 0.0259 
-0.2173 0.6003 0.5200 0.6060 -0.1146 -0.4554 -0.0462 -0.0304 0.1282 -0.0382 1.1279 -0.6801 0.0047 0.1718 0.0125 0.0135 
-0.1061 -0.3813 -0.1540 -0.5057 0.1010 -1.3694 -0.0040 -0.0135 0.0523 0.0427 -1.1145 -0.5439 0.0853 -0.1827 0.1224 -0.0960 
-0.0227 -0.1133 0.1369 -0.0031 -0.0633 1.1509 -0.0748 -0.0476 -0.0090 -0.0449 -0.1921 -0.1433 0.0377 0.0297 0.0535 0.1262 
0.1296 -0.2056 -0.2563 -0.3029 0.0334 -1.0176 0.1050 0.0736 -0.0345 0.0330 -0.5620 0.1914 -0.0182 -0.1729 -0.0272 -0.1186 
0.2373 -0.1400 -0.0586 -0.0158 -0.0526 1.3442 -0.0439 -0.1414 0.0093 -0.0666 0.2132 0.6839 -0.2393 0.1193 -0.0817 0.1726 
0.0124 -0.6940 -0.4569 -0.7091 0.1253 1.3013 0.0000 -0.0827 -0.0622 0.1107 -1.6982 0.1836 0.0865 -0.3357 0.0693 -0.0139 
-0.1794 -0.1650 0.1232 -0.1178 0.0597 0.1057 -0.0457 -0.0071 0.0630 0.0121 -0.4485 -0.3924 0.0438 -0.0133 0.1063 -0.0016 
-0.2344 0.1767 0.1663 0.0477 0.0719 -1.8253 0.0246 0.1093 0.0508 0.0871 0.1929 -0.6932 0.1655 -0.0605 0.0415 -0.1129 
